/* Auto-generated by tools/train_diabetes_rf.py. Do not edit manually. */
export const diabetesRiskModel = {"model_type":"random_forest_classifier","version":"1.0.0","target":"diabetes","feature_order":["age","bmi","HbA1c_level","blood_glucose_level","hypertension","heart_disease","gender_Female","gender_Male","gender_Other","smoking_history_No Info","smoking_history_current","smoking_history_ever","smoking_history_former","smoking_history_never","smoking_history_not current"],"defaults":{"numeric":{"age":43.0,"bmi":27.32,"HbA1c_level":5.8,"blood_glucose_level":140.0,"hypertension":0.0,"heart_disease":0.0},"gender":"Other","smoking_history":"No Info"},"class_names":["no_diabetes","diabetes"],"n_estimators":60,"metrics":{"roc_auc":0.9740855512696881,"accuracy":0.9021,"f1":0.6122772277227723,"precision":0.4614925373134328,"recall":0.9094117647058824,"brier":0.06880364469647916},"trees":[{"children_left":[1,2,3,4,5,-1,7,8,9,-1,-1,12,-1,-1,15,16,-1,-1,19,-1,-1,22,23,24,25,-1,-1,28,-1,-1,31,32,-1,-1,-1,36,-1,38,-1,40,-1,-1,43,-1,-1,46,47,-1,49,50,51,52,-1,-1,55,-1,-1,58,-1,-1,61,-1,63,64,-1,-1,67,-1,-1,70,71,72,73,74,-1,-1,77,-1,-1,80,-1,82,-1,-1,85,86,87,-1,-1,-1,91,92,-1,-1,95,-1,-1,98,-1,100,101,-1,103,-1,-1,106,-1,-1,109,110,111,112,-1,114,-1,116,117,-1,-1,-1,121,122,123,124,-1,-1,127,-1,-1,-1,131,132,-1,134,-1,-1,-1,138,-1,140,141,142,-1,-1,-1,146,147,148,-1,-1,151,-1,-1,154,155,-1,-1,158,-1,-1,161,162,-1,164,165,166,-1,-1,-1,170,171,-1,173,-1,-1,-1,177,178,-1,180,-1,182,183,-1,-1,186,-1,-1,-1],"children_right":[108,45,42,21,6,-1,14,11,10,-1,-1,13,-1,-1,18,17,-1,-1,20,-1,-1,35,30,27,26,-1,-1,29,-1,-1,34,33,-1,-1,-1,37,-1,39,-1,41,-1,-1,44,-1,-1,69,48,-1,60,57,54,53,-1,-1,56,-1,-1,59,-1,-1,62,-1,66,65,-1,-1,68,-1,-1,97,84,79,76,75,-1,-1,78,-1,-1,81,-1,83,-1,-1,90,89,88,-1,-1,-1,94,93,-1,-1,96,-1,-1,99,-1,105,102,-1,104,-1,-1,107,-1,-1,160,137,120,113,-1,115,-1,119,118,-1,-1,-1,130,129,126,125,-1,-1,128,-1,-1,-1,136,133,-1,135,-1,-1,-1,139,-1,145,144,143,-1,-1,-1,153,150,149,-1,-1,152,-1,-1,157,156,-1,-1,159,-1,-1,176,163,-1,169,168,167,-1,-1,-1,175,172,-1,174,-1,-1,-1,188,179,-1,181,-1,185,184,-1,-1,187,-1,-1,-1],"feature":[12,1,2,5,2,-2,1,4,11,-2,-2,13,-2,-2,6,3,-2,-2,3,-2,-2,13,14,4,11,-2,-2,7,-2,-2,0,3,-2,-2,-2,1,-2,1,-2,0,-2,-2,4,-2,-2,13,3,-2,0,4,0,3,-2,-2,6,-2,-2,10,-2,-2,2,-2,0,9,-2,-2,4,-2,-2,1,6,5,0,1,-2,-2,3,-2,-2,3,-2,2,-2,-2,0,3,2,-2,-2,-2,5,2,-2,-2,0,-2,-2,2,-2,2,3,-2,7,-2,-2,0,-2,-2,4,1,1,0,-2,2,-2,2,1,-2,-2,-2,7,3,0,3,-2,-2,2,-2,-2,-2,3,1,-2,2,-2,-2,-2,3,-2,0,1,2,-2,-2,-2,1,0,1,-2,-2,0,-2,-2,6,3,-2,-2,2,-2,-2,1,3,-2,0,6,0,-2,-2,-2,1,2,-2,6,-2,-2,-2,5,3,-2,2,-2,2,1,-2,-2,1,-2,-2,-2],"threshold":[0.5,27.454999923706055,6.700000047683716,0.5,5.349999904632568,-2.0,23.494999885559082,0.5,0.5,-2.0,-2.0,0.5,-2.0,-2.0,0.5,210.0,-2.0,-2.0,210.0,-2.0,-2.0,0.5,0.5,0.5,0.5,-2.0,-2.0,0.5,-2.0,-2.0,73.5,156.5,-2.0,-2.0,-2.0,21.204999923706055,-2.0,23.52999973297119,-2.0,73.5,-2.0,-2.0,0.5,-2.0,-2.0,0.5,113.0,-2.0,40.5,0.5,27.5,158.5,-2.0,-2.0,0.5,-2.0,-2.0,0.5,-2.0,-2.0,5.349999904632568,-2.0,53.5,0.5,-2.0,-2.0,0.5,-2.0,-2.0,34.21500015258789,0.5,0.5,43.5,31.260000228881836,-2.0,-2.0,113.0,-2.0,-2.0,128.0,-2.0,5.349999904632568,-2.0,-2.0,53.5,210.0,6.549999952316284,-2.0,-2.0,-2.0,0.5,5.349999904632568,-2.0,-2.0,79.5,-2.0,-2.0,5.349999904632568,-2.0,6.700000047683716,113.0,-2.0,0.5,-2.0,-2.0,39.5,-2.0,-2.0,0.5,27.964999198913574,22.59500026702881,62.5,-2.0,6.049999952316284,-2.0,6.549999952316284,20.40499973297119,-2.0,-2.0,-2.0,0.5,210.0,66.5,113.0,-2.0,-2.0,5.349999904632568,-2.0,-2.0,-2.0,210.0,23.035000801086426,-2.0,6.700000047683716,-2.0,-2.0,-2.0,113.0,-2.0,33.5,32.244998931884766,5.900000095367432,-2.0,-2.0,-2.0,33.795000076293945,52.5,29.494999885559082,-2.0,-2.0,63.5,-2.0,-2.0,0.5,210.0,-2.0,-2.0,5.349999904632568,-2.0,-2.0,31.489999771118164,113.0,-2.0,64.5,0.5,60.5,-2.0,-2.0,-2.0,29.394999504089355,5.349999904632568,-2.0,0.5,-2.0,-2.0,-2.0,0.5,113.0,-2.0,5.349999904632568,-2.0,6.700000047683716,33.68000030517578,-2.0,-2.0,35.92499923706055,-2.0,-2.0,-2.0],"value":[0.5000000000001275,0.4727727857421582,0.3300261023324415,0.20578716376653283,0.18209392256405657,0.0,0.27463272619051304,0.1485129013196594,0.13084182767504102,0.12513173610621703,0.30310880829015585,0.6423141891891894,0.538618925831202,0.7152103559870551,0.33647146352278645,0.3623149328365346,0.26459363957595644,1.0,0.31634899226381624,0.222607248788229,1.0,0.6592653508771938,0.6324324324324331,0.6182298546895645,0.5937695190505938,0.5828951010240802,0.653631284916201,0.6996879875195008,0.78770197486535,0.5784919653893695,0.6964285714285713,0.794567062818336,0.6802325581395349,0.8736358414704193,0.31158455392809586,0.7030123377663838,0.3471810089020771,0.7233231707317076,0.831338818249813,0.6917013356689294,0.5135043889264012,0.7772197018794557,1.0,1.0,1.0,0.6552526644540853,0.6386570478369146,0.0,0.7253925669650425,0.4039769536368752,0.38242095432916895,0.16070324840326944,0.027545615067686952,0.34718100890207765,0.48857396508072287,0.4071790792482853,0.5287875810571828,0.7164034805027393,0.7452229299363058,0.6802325581395349,0.7978669518235038,0.0,0.8681881742929191,0.790732408565615,0.8253968253968259,0.7103649092373463,0.8973262257432428,0.8874937635123908,0.928489853289994,0.6708198213574308,0.600583158250045,0.6305607971437506,0.6023833167825232,0.3027166882276849,0.2325313807531385,0.4032668964483745,0.7012108406809969,0.0,0.7740351191944568,0.8552631578947367,0.49734325185972367,0.9016100178890875,0.0,0.940028694404591,0.5780867970660157,0.34747433370030034,0.2325273269294473,0.14245129870129905,0.6324324324324326,1.0,0.7304952538874139,0.7095792917408031,0.0,0.8068789975199067,0.8905152224824355,0.9120527683389964,0.8316019682886824,0.754300893036256,0.0,0.8410125098335635,0.7519135416165226,0.0,0.8117715844864558,0.7978644151974179,0.8413504509628671,1.0,1.0,1.0,0.6796318247720029,0.6315876546386908,0.4969559677191007,0.32900713822193434,0.059877175025588654,0.5260397152491574,0.0,0.7372013651877134,0.5300970873786407,0.5963302752293578,0.41489361702127664,0.8785335689045937,0.5222533559233689,0.41984076552162447,0.3288506442964634,0.1898412698412703,0.0,0.25308003385686123,0.5489889397832649,0.0,0.6710364604670218,1.0,0.6013687158903882,0.4537216572355672,0.8174672489082969,0.4364585923899533,0.3091463414634152,1.0,1.0,0.7343069793568332,0.0,0.8007185346604639,0.04842715231788086,0.11735205616850548,0.0,0.26174496644295303,0.0,0.8227548830611437,0.7589641434262955,0.49928876244665754,0.09881756756756754,0.5914835699008364,0.8090103262359506,0.7275097783572362,0.8445620789220409,0.880409943909702,0.8992740902405468,0.8561555660952641,1.0,0.8625370853187092,0.0,0.9088239473310283,0.8411544166117342,0.7953488372093029,0.0,0.8464272115750734,0.7580993520518358,0.7105263157894737,0.5897177419354839,0.7916102841677942,0.8028974456728936,0.8706859361518553,0.8529769137302554,0.0,0.907563025210084,0.9277299501585863,0.8726202158979393,0.9410187667560321,0.8904185728333834,0.8745635093845484,0.0,0.9163617653784587,0.0,0.9491916859122401,0.8957345971563979,0.823943661971831,0.9125543722813857,1.0,1.0,1.0,0.947836395969176]},{"children_left":[1,2,-1,4,5,6,7,8,9,-1,-1,12,-1,-1,15,16,-1,-1,19,-1,-1,22,23,-1,-1,26,-1,28,-1,-1,31,32,-1,34,35,-1,-1,38,-1,-1,41,42,43,-1,-1,46,-1,-1,49,50,-1,-1,-1,-1,55,56,57,58,59,-1,61,62,-1,-1,-1,66,67,-1,-1,70,71,-1,-1,74,-1,-1,77,78,79,80,-1,-1,83,-1,-1,86,87,-1,-1,90,-1,-1,93,94,95,-1,-1,-1,-1,100,101,-1,103,104,105,-1,-1,108,-1,-1,111,-1,113,-1,-1,116,-1,-1,-1],"children_right":[54,3,-1,53,30,21,14,11,10,-1,-1,13,-1,-1,18,17,-1,-1,20,-1,-1,25,24,-1,-1,27,-1,29,-1,-1,40,33,-1,37,36,-1,-1,39,-1,-1,48,45,44,-1,-1,47,-1,-1,52,51,-1,-1,-1,-1,118,99,76,65,60,-1,64,63,-1,-1,-1,69,68,-1,-1,73,72,-1,-1,75,-1,-1,92,85,82,81,-1,-1,84,-1,-1,89,88,-1,-1,91,-1,-1,98,97,96,-1,-1,-1,-1,115,102,-1,110,107,106,-1,-1,109,-1,-1,112,-1,114,-1,-1,117,-1,-1,-1],"feature":[9,2,-2,2,12,5,13,11,3,-2,-2,3,-2,-2,1,2,-2,-2,6,-2,-2,0,6,-2,-2,3,-2,10,-2,-2,4,3,-2,0,1,-2,-2,5,-2,-2,5,6,3,-2,-2,1,-2,-2,2,2,-2,-2,-2,-2,3,0,6,0,3,-2,4,3,-2,-2,-2,3,2,-2,-2,1,2,-2,-2,2,-2,-2,0,2,1,0,-2,-2,0,-2,-2,3,1,-2,-2,0,-2,-2,1,2,0,-2,-2,-2,-2,2,3,-2,5,4,2,-2,-2,1,-2,-2,2,-2,0,-2,-2,5,-2,-2,-2],"threshold":[0.5,5.349999904632568,-2.0,6.700000047683716,0.5,0.5,0.5,0.5,210.0,-2.0,-2.0,158.5,-2.0,-2.0,28.765000343322754,5.75,-2.0,-2.0,0.5,-2.0,-2.0,49.5,0.5,-2.0,-2.0,113.0,-2.0,0.5,-2.0,-2.0,0.5,113.0,-2.0,52.5,29.84000015258789,-2.0,-2.0,0.5,-2.0,-2.0,0.5,0.5,113.0,-2.0,-2.0,27.769999504089355,-2.0,-2.0,6.1499998569488525,5.900000095367432,-2.0,-2.0,-2.0,-2.0,210.0,51.5,0.5,43.5,113.0,-2.0,0.5,128.0,-2.0,-2.0,-2.0,128.0,6.549999952316284,-2.0,-2.0,30.22499942779541,6.549999952316284,-2.0,-2.0,5.349999904632568,-2.0,-2.0,37.5,6.349999904632568,33.51499938964844,27.5,-2.0,-2.0,33.5,-2.0,-2.0,158.5,28.350000381469727,-2.0,-2.0,13.5,-2.0,-2.0,35.739999771118164,6.549999952316284,43.5,-2.0,-2.0,-2.0,-2.0,6.700000047683716,113.0,-2.0,0.5,0.5,5.349999904632568,-2.0,-2.0,25.730000495910645,-2.0,-2.0,5.349999904632568,-2.0,75.5,-2.0,-2.0,0.5,-2.0,-2.0,-2.0],"value":[0.5000000000001313,0.5706139149431202,0.0,0.6934295312081232,0.5540478167993279,0.524248449087896,0.49794501945360226,0.5263115912807423,0.5345321646179843,0.4080596906454944,1.0,0.49028657293119854,0.30407924166577743,0.7271323290343557,0.4813416092359397,0.35509454001705143,0.4051033504188997,0.34653870440254153,0.6399547013449247,0.6609919046734781,0.6275818800757559,0.8343726037703086,0.698577764184126,0.3058382431708624,0.8555222602739726,0.843513709664966,0.0,0.884058283747552,0.8951263320237876,0.8213463751438435,0.6834561117105905,0.6437429537767806,0.0,0.7255400254129598,0.4343106071082823,0.25053691430154923,0.6173825024730271,0.8002590122055049,0.784408002060615,0.8757668711656441,0.8278440272959822,0.8125612968981367,0.7831713280457989,0.0,0.82665072071505,0.8400968432814973,0.7076511643076119,0.8930247106662496,0.8851436605501279,0.8997186268992684,0.8595866976871493,0.9277453885118991,0.859163406560337,1.0,0.3083866985572195,0.2101485522216268,0.07870713719733194,0.076482603891105,0.03829934548601931,0.0,0.05461636485373556,0.053142974145155376,0.11690638276091485,0.04434732263895421,0.3246162592382034,0.3106596425111785,0.027711720456199965,0.0,0.2543429844097995,0.41713847390144954,0.31666246533904696,0.04404504782474549,0.8310289623053413,0.6813842482100236,0.0,0.7986013986013987,0.08056106383209621,0.0322071182807843,0.013265187594378974,0.009250558921686839,0.005679162149528409,0.02492470208215093,0.10047510117895485,0.0,0.33489736070381226,0.11260106487872124,0.04443372293900644,0.02013825209846922,0.22703777335984082,0.274671600370028,0.0,0.41471590591653196,0.21973951631330352,0.14918354016982385,0.09966338361800245,0.14627630375114298,0.060869565217390884,0.4901287553648069,0.5606676953289387,0.43916087625313394,0.2980106558178379,0.0,0.378196141576943,0.340114268008975,0.3268923185882588,0.0,0.4468855898015195,0.46627995381972825,0.0,0.5054794102384083,0.6477595008508226,0.0,0.7630629426700521,0.8255760297782015,0.599063836655637,1.0,1.0,1.0,1.0]},{"children_left":[1,2,3,4,5,6,7,8,-1,-1,11,-1,-1,14,-1,-1,17,18,19,-1,-1,-1,-1,24,25,26,27,-1,-1,30,-1,-1,33,34,-1,-1,37,-1,-1,40,41,-1,43,-1,-1,46,-1,48,-1,-1,-1,52,53,54,55,-1,57,-1,59,-1,-1,-1,63,-1,65,-1,-1,68,-1,70,71,-1,73,74,-1,-1,77,-1,-1,80,81,-1,-1,84,85,-1,-1,88,-1,-1,91,-1,-1],"children_right":[90,51,50,23,16,13,10,9,-1,-1,12,-1,-1,15,-1,-1,22,21,20,-1,-1,-1,-1,39,32,29,28,-1,-1,31,-1,-1,36,35,-1,-1,38,-1,-1,45,42,-1,44,-1,-1,47,-1,49,-1,-1,-1,67,62,61,56,-1,58,-1,60,-1,-1,-1,64,-1,66,-1,-1,69,-1,79,72,-1,76,75,-1,-1,78,-1,-1,83,82,-1,-1,87,86,-1,-1,89,-1,-1,92,-1,-1],"feature":[3,12,13,0,9,14,1,7,-2,-2,0,-2,-2,3,-2,-2,2,1,6,-2,-2,-2,-2,4,1,1,0,-2,-2,10,-2,-2,6,1,-2,-2,3,-2,-2,6,2,-2,11,-2,-2,2,-2,2,-2,-2,-2,0,4,2,6,-2,3,-2,0,-2,-2,-2,3,-2,3,-2,-2,2,-2,4,3,-2,0,6,-2,-2,1,-2,-2,1,6,-2,-2,6,2,-2,-2,2,-2,-2,2,-2,-2],"threshold":[210.0,0.5,0.5,43.5,0.5,0.5,48.760000228881836,0.5,-2.0,-2.0,36.5,-2.0,-2.0,113.0,-2.0,-2.0,6.700000047683716,32.15500068664551,0.5,-2.0,-2.0,-2.0,-2.0,0.5,34.46000099182129,27.445000648498535,54.5,-2.0,-2.0,0.5,-2.0,-2.0,0.5,40.010000228881836,-2.0,-2.0,113.0,-2.0,-2.0,0.5,5.349999904632568,-2.0,0.5,-2.0,-2.0,5.349999904632568,-2.0,6.700000047683716,-2.0,-2.0,-2.0,52.5,0.5,6.700000047683716,0.5,-2.0,113.0,-2.0,35.5,-2.0,-2.0,-2.0,113.0,-2.0,158.5,-2.0,-2.0,5.349999904632568,-2.0,0.5,113.0,-2.0,65.5,0.5,-2.0,-2.0,25.210000038146973,-2.0,-2.0,27.105000495910645,0.5,-2.0,-2.0,0.5,6.700000047683716,-2.0,-2.0,6.549999952316284,-2.0,-2.0,5.75,-2.0,-2.0],"value":[0.5000000000001082,0.378745105181788,0.35072798256396637,0.3071912819076599,0.09859707599764293,0.2025226548824689,0.18320793200867166,0.166182282218811,0.1465567759664796,0.1933347630092992,0.6477476919263895,0.1890953254606062,0.8309792853411736,0.24128448664057753,0.0,0.3110228953497688,0.0527822517532714,0.03101840908259582,0.019692012595914746,0.019543716787726324,0.019824743369757893,0.18985597316876687,1.0,0.4840402809644983,0.436120857009522,0.38731859818538733,0.35101642276422823,0.20907547265141904,0.4119548690446191,0.4793632185131719,0.45522998976145207,0.5494035345504855,0.6854589602554182,0.7446107546621642,0.6736247425759979,0.8449585806234515,0.6397533297792528,0.0,0.7182387413249632,0.7236736653475616,0.7503424779758703,0.0,0.8406612356634551,0.8379898735889426,0.8533274251018697,0.6992268117526271,0.0,0.7917941215039718,0.650365896361655,1.0,0.4110995191331556,0.5777290213077352,0.3327180403128155,0.24735626122860097,0.14113322391577265,0.18857045362197178,0.11016067537354648,0.0,0.15528100406293466,0.0,0.24205722549066122,1.0,0.7881250779570712,0.0,0.8307071792924985,0.7553821129024021,0.9019066517125356,0.6616031766109999,0.0,0.7671425859147873,0.7332588739399687,0.0,0.802214314393403,0.7549438606138316,0.7843347033111367,0.7153360262549643,0.830613683990982,0.6299943352336411,0.8606204022964331,0.8616576589306109,0.7494436106157185,0.7360752823785567,0.7606682795880554,0.8843802900135984,0.8901881767994902,0.8068032063920306,1.0,0.8762944796694673,0.7871835528141666,0.9575959732237438,1.0,1.0,1.0]},{"children_left":[1,2,3,-1,5,6,7,8,9,-1,-1,12,-1,-1,15,16,-1,-1,19,-1,-1,22,23,24,-1,-1,27,-1,-1,-1,31,32,33,34,-1,-1,37,-1,-1,40,41,-1,-1,44,-1,-1,47,48,-1,50,-1,-1,53,54,-1,-1,57,-1,-1,60,-1,-1,63,64,65,66,67,68,69,-1,-1,-1,-1,74,75,-1,-1,78,79,-1,-1,82,-1,-1,85,-1,87,-1,89,90,-1,-1,-1,94,95,96,-1,98,-1,-1,-1,-1,103,-1,105,-1,107,108,109,110,-1,-1,-1,114,-1,-1,117,-1,119,-1,121,-1,-1],"children_right":[62,59,4,-1,30,21,14,11,10,-1,-1,13,-1,-1,18,17,-1,-1,20,-1,-1,29,26,25,-1,-1,28,-1,-1,-1,46,39,36,35,-1,-1,38,-1,-1,43,42,-1,-1,45,-1,-1,52,49,-1,51,-1,-1,56,55,-1,-1,58,-1,-1,61,-1,-1,102,93,84,73,72,71,70,-1,-1,-1,-1,77,76,-1,-1,81,80,-1,-1,83,-1,-1,86,-1,88,-1,92,91,-1,-1,-1,101,100,97,-1,99,-1,-1,-1,-1,104,-1,106,-1,116,113,112,111,-1,-1,-1,115,-1,-1,118,-1,120,-1,122,-1,-1],"feature":[5,3,3,-2,1,3,1,9,14,-2,-2,1,-2,-2,10,6,-2,-2,1,-2,-2,2,0,12,-2,-2,2,-2,-2,-2,0,10,3,12,-2,-2,0,-2,-2,0,1,-2,-2,3,-2,-2,12,2,-2,7,-2,-2,1,7,-2,-2,2,-2,-2,12,-2,-2,13,14,1,7,1,1,10,-2,-2,-2,-2,1,2,-2,-2,0,2,-2,-2,2,-2,-2,3,-2,0,-2,3,3,-2,-2,-2,1,4,2,-2,0,-2,-2,-2,-2,0,-2,2,-2,7,4,2,0,-2,-2,-2,1,-2,-2,3,-2,1,-2,2,-2,-2],"threshold":[0.5,210.0,113.0,-2.0,27.8149995803833,158.5,20.86500072479248,0.5,0.5,-2.0,-2.0,13.349999904632568,-2.0,-2.0,0.5,0.5,-2.0,-2.0,23.954999923706055,-2.0,-2.0,6.700000047683716,58.5,0.5,-2.0,-2.0,5.349999904632568,-2.0,-2.0,-2.0,38.5,0.5,158.5,0.5,-2.0,-2.0,33.5,-2.0,-2.0,30.5,42.92499923706055,-2.0,-2.0,142.5,-2.0,-2.0,0.5,5.349999904632568,-2.0,0.5,-2.0,-2.0,32.85999870300293,0.5,-2.0,-2.0,5.349999904632568,-2.0,-2.0,0.5,-2.0,-2.0,0.5,0.5,32.15999984741211,0.5,30.369999885559082,28.674999237060547,0.5,-2.0,-2.0,-2.0,-2.0,22.535000801086426,5.900000095367432,-2.0,-2.0,58.5,5.349999904632568,-2.0,-2.0,5.349999904632568,-2.0,-2.0,113.0,-2.0,45.5,-2.0,210.0,158.5,-2.0,-2.0,-2.0,31.255000114440918,0.5,5.75,-2.0,75.5,-2.0,-2.0,-2.0,-2.0,51.5,-2.0,5.349999904632568,-2.0,0.5,0.5,6.700000047683716,79.5,-2.0,-2.0,-2.0,31.019999504089355,-2.0,-2.0,128.0,-2.0,25.59500026702881,-2.0,6.700000047683716,-2.0,-2.0],"value":[0.5000000000000366,0.46582880495324885,0.3495750504183504,0.0,0.4357755067493226,0.2961671406961719,0.2755148065107964,0.07230346686061775,0.15968092326795658,0.17361114162853672,0.0,0.012794349743337412,0.10182385195529942,0.009906969429771142,0.31802430108754304,0.3158157319246866,0.36032312647561426,0.2826103248352613,0.33967363229081915,0.13759949473731678,0.3863018814348518,0.3346180265201923,0.21931223962034443,0.10030842403804419,0.09229689796341252,0.2604366819995046,0.4909206012254198,0.0,0.6241438285622762,1.0,0.6239066389477276,0.26688020702385695,0.2767492214975034,0.2448293422940583,0.2406337887114255,0.2919075245352273,0.33441299860099943,0.24318342791415698,0.49888171312874946,0.1988170328154168,0.2719449395981296,0.21914580794168903,0.5248514505417687,0.09578644162718605,0.0,0.1378931221402947,0.6980336593693357,0.6847585454811339,0.0,0.7860222252769086,0.7767525036212857,0.7993662128721666,0.7562407375867417,0.6659355807544779,0.6434341254176333,0.6834441908810311,0.8215977390285357,0.0,0.8822791105464256,1.0,1.0,1.0,0.838605647171449,0.8309161450070278,0.8294137921245984,0.7946067540765683,0.7948240908106982,0.8033483447831382,0.7912059594003049,0.7724614303632431,0.8583181665991383,0.8898365863442425,0.687786239619165,0.7944973544973558,0.5227285981045913,0.3949372415411633,0.6236225704634808,0.8036466806438713,0.7176707307036501,0.0,0.8083973864748941,0.8194536175208811,0.0,0.8863198905381924,0.9017136999595112,0.0,0.9361318577424791,0.8361067045699709,0.9407149203197016,0.9118095990392344,0.8969876882070105,0.9289658400324273,1.0,0.8426054046412084,0.7632375699955283,0.7119633139950493,0.0,0.8340511348099535,0.868436728098284,0.7697116620323854,0.8733012072268082,0.9484498258939702,0.8575072290020788,0.7130856901646263,0.8627492176450287,0.0,0.917636322535113,0.8925679288431593,0.8882057899800255,0.8292140357568965,0.863165217811443,0.7435626568070778,1.0,0.9014220211603841,0.8617869037732133,0.9429023131409524,0.9392188271520938,0.809258125414562,0.9522985293828166,0.8082200015211776,0.963104141925165,0.931072551002957,1.0]},{"children_left":[1,2,3,4,5,6,7,8,-1,-1,11,-1,-1,14,15,-1,-1,18,-1,-1,21,22,23,-1,-1,26,-1,-1,-1,30,31,-1,33,34,-1,-1,37,-1,-1,-1,41,-1,43,-1,45,46,47,-1,-1,-1,51,52,-1,-1,55,-1,-1,58,-1,60,61,62,63,64,-1,-1,-1,-1,69,70,-1,72,-1,-1,75,76,-1,-1,79,-1,-1,82,-1,84,85,86,-1,-1,89,-1,-1,92,93,-1,-1,96,-1,-1,99,-1,-1],"children_right":[98,57,40,29,20,13,10,9,-1,-1,12,-1,-1,17,16,-1,-1,19,-1,-1,28,25,24,-1,-1,27,-1,-1,-1,39,32,-1,36,35,-1,-1,38,-1,-1,-1,42,-1,44,-1,50,49,48,-1,-1,-1,54,53,-1,-1,56,-1,-1,59,-1,81,68,67,66,65,-1,-1,-1,-1,74,71,-1,73,-1,-1,78,77,-1,-1,80,-1,-1,83,-1,91,88,87,-1,-1,90,-1,-1,95,94,-1,-1,97,-1,-1,100,-1,-1],"feature":[2,1,4,7,9,5,11,3,-2,-2,2,-2,-2,13,1,-2,-2,2,-2,-2,3,0,1,-2,-2,1,-2,-2,-2,3,2,-2,5,11,-2,-2,0,-2,-2,-2,2,-2,3,-2,0,5,9,-2,-2,-2,0,1,-2,-2,3,-2,-2,2,-2,0,0,9,14,3,-2,-2,-2,-2,1,3,-2,1,-2,-2,14,11,-2,-2,3,-2,-2,3,-2,0,7,0,-2,-2,5,-2,-2,9,6,-2,-2,1,-2,-2,0,-2,-2],"threshold":[6.700000047683716,29.5649995803833,0.5,0.5,0.5,0.5,0.5,210.0,-2.0,-2.0,5.349999904632568,-2.0,-2.0,0.5,27.75999927520752,-2.0,-2.0,5.349999904632568,-2.0,-2.0,210.0,55.5,26.630000114440918,-2.0,-2.0,19.619999885559082,-2.0,-2.0,-2.0,210.0,5.349999904632568,-2.0,0.5,0.5,-2.0,-2.0,62.5,-2.0,-2.0,-2.0,5.349999904632568,-2.0,113.0,-2.0,61.5,0.5,0.5,-2.0,-2.0,-2.0,69.5,28.574999809265137,-2.0,-2.0,210.0,-2.0,-2.0,5.349999904632568,-2.0,44.5,28.5,0.5,0.5,113.0,-2.0,-2.0,-2.0,-2.0,34.755001068115234,113.0,-2.0,30.72499942779541,-2.0,-2.0,0.5,0.5,-2.0,-2.0,142.5,-2.0,-2.0,113.0,-2.0,58.5,0.5,52.5,-2.0,-2.0,0.5,-2.0,-2.0,0.5,0.5,-2.0,-2.0,36.34000015258789,-2.0,-2.0,20.0,-2.0,-2.0],"value":[0.5000000000001857,0.3528412308855803,0.2519068407915675,0.21541320320601356,0.18837379643528993,0.2277189354237943,0.20454606468751022,0.20354782097948795,0.133498366474218,1.0,0.22156990337882487,0.0,0.33260397705761324,0.7320295805811162,0.7047011511450242,0.7442207510310397,0.2560347241669,0.7569820896696328,0.0,0.84047093214321,0.12215136926195691,0.08395945556291401,0.03035437899183274,0.00739249132132188,0.058134894044522746,0.24857774001699395,0.467198664611349,0.23949118627041308,1.0,0.2505657701417949,0.17642835682973354,0.0,0.26739586176689006,0.23903783504214027,0.23758674418304854,0.27724280919467853,0.6497876801165531,0.4941073276990933,0.6949714293987621,1.0,0.6198186990670954,0.0,0.7390523503442379,0.0,0.8013846955488705,0.7424942544604058,0.7146002888454669,0.7342789641367834,0.6145188141744823,0.9275484841824053,0.8263306671153278,0.8716157324181509,0.8809084862083596,0.7664996960995956,0.8000291672743177,0.7354614794521976,1.0,0.5609161145366306,0.0,0.6877882851272065,0.41222574552349306,0.08547028829027069,0.1173672620987256,0.12646390705048127,0.0,0.1710784828783343,0.0,0.0,0.5115340636899933,0.3884264876426169,0.0,0.484369856015743,0.3836047494320938,0.5112276620965764,0.6052112337281247,0.5838119807292943,0.5620646331295708,0.7896406736516739,0.7714882644003267,0.3265707040040003,0.8751685505485176,0.7706723091873342,0.0,0.8289026963161897,0.7786556404322688,0.7512828178459858,0.7273088855301888,0.7773787944781031,0.8096635341196393,0.7988757243584751,0.9035453010692177,0.8636399694245851,0.8701729829593345,0.8824195652934994,0.8601513487647682,0.8230220170078469,0.756903111132754,0.9017981599212098,1.0,1.0,1.0]},{"children_left":[1,2,3,-1,5,6,7,8,9,-1,-1,12,-1,-1,-1,-1,17,-1,19,20,21,-1,-1,24,-1,-1,27,28,-1,-1,31,-1,-1,34,35,36,37,38,39,-1,-1,42,-1,-1,45,46,-1,-1,-1,50,51,52,-1,-1,55,-1,-1,-1,59,-1,61,62,63,-1,-1,66,-1,-1,69,-1,-1,72,73,74,-1,76,77,-1,-1,80,-1,-1,83,84,-1,86,-1,-1,89,-1,91,-1,-1,94,95,-1,97,-1,99,-1,-1,102,103,-1,105,-1,-1,108,109,-1,-1,-1,113,-1,-1],"children_right":[112,33,4,-1,16,15,14,11,10,-1,-1,13,-1,-1,-1,-1,18,-1,26,23,22,-1,-1,25,-1,-1,30,29,-1,-1,32,-1,-1,71,58,49,44,41,40,-1,-1,43,-1,-1,48,47,-1,-1,-1,57,54,53,-1,-1,56,-1,-1,-1,60,-1,68,65,64,-1,-1,67,-1,-1,70,-1,-1,93,82,75,-1,79,78,-1,-1,81,-1,-1,88,85,-1,87,-1,-1,90,-1,92,-1,-1,101,96,-1,98,-1,100,-1,-1,107,104,-1,106,-1,-1,111,110,-1,-1,-1,114,-1,-1],"feature":[3,1,3,-2,0,2,5,12,2,-2,-2,7,-2,-2,-2,-2,2,-2,4,6,14,-2,-2,9,-2,-2,11,6,-2,-2,3,-2,-2,0,4,0,1,10,11,-2,-2,6,-2,-2,0,14,-2,-2,-2,2,0,1,-2,-2,2,-2,-2,-2,3,-2,10,7,2,-2,-2,0,-2,-2,0,-2,-2,4,1,2,-2,14,9,-2,-2,1,-2,-2,1,2,-2,3,-2,-2,2,-2,1,-2,-2,0,2,-2,3,-2,0,-2,-2,0,2,-2,2,-2,-2,9,2,-2,-2,-2,2,-2,-2],"threshold":[210.0,28.164999961853027,113.0,-2.0,49.5,6.700000047683716,0.5,0.5,5.349999904632568,-2.0,-2.0,0.5,-2.0,-2.0,-2.0,-2.0,5.349999904632568,-2.0,0.5,0.5,0.5,-2.0,-2.0,0.5,-2.0,-2.0,0.5,0.5,-2.0,-2.0,156.5,-2.0,-2.0,46.5,0.5,27.5,36.83500099182129,0.5,0.5,-2.0,-2.0,0.5,-2.0,-2.0,25.5,0.5,-2.0,-2.0,-2.0,6.700000047683716,38.5,35.68499946594238,-2.0,-2.0,5.349999904632568,-2.0,-2.0,-2.0,113.0,-2.0,0.5,0.5,5.75,-2.0,-2.0,42.5,-2.0,-2.0,41.5,-2.0,-2.0,0.5,34.89500045776367,5.349999904632568,-2.0,0.5,0.5,-2.0,-2.0,31.6899995803833,-2.0,-2.0,43.39000129699707,5.349999904632568,-2.0,113.0,-2.0,-2.0,5.349999904632568,-2.0,46.16499900817871,-2.0,-2.0,63.5,5.349999904632568,-2.0,113.0,-2.0,49.5,-2.0,-2.0,74.5,5.349999904632568,-2.0,6.700000047683716,-2.0,-2.0,0.5,5.349999904632568,-2.0,-2.0,-2.0,5.75,-2.0,-2.0],"value":[0.5000000000000786,0.3809566624708442,0.26698808872746305,0.0,0.34382667732572764,0.12887826717320713,0.07497189313898527,0.07031691611319475,0.06908528041447223,0.0,0.11182293369271408,0.10507670750547915,0.05670181044076435,0.1832433177529106,0.722590086665653,1.0,0.5639921565526301,0.0,0.6910828761687825,0.6559065918471115,0.7118856186264715,0.7123782310366141,0.7057043185704045,0.6063278548291848,0.6420200025693222,0.5159620245642238,0.836183268723405,0.8330039913348211,0.8826345855684806,0.774707954756166,0.8714385320882225,0.9431589212785115,0.6313794234987306,0.5611560307354865,0.31220321341596513,0.28131294941097695,0.0703650968332104,0.08712860419936512,0.05838327971802246,0.050393554256726245,0.20375234260155928,0.26973857143515945,0.37323089881187893,0.14724822145133615,0.015114102533625095,0.0,0.0,0.0,0.06694930386092791,0.3466782551283644,0.2329519404331742,0.18495405555585256,0.10878427638332992,0.2979622453125004,0.2833324452754532,0.0,0.41361071433622026,1.0,0.6443624345910223,0.0,0.720233954132677,0.6894064400546888,0.5055905147422568,0.0,0.6866498103666245,0.7873334967489272,0.7339223918351575,0.8565989104328979,0.8079770775448346,0.6798865538404314,0.8920037645746554,0.6702907846414841,0.6327817454432624,0.5648337393001094,0.0,0.6882352708035923,0.6945876764744734,0.7148639403030582,0.5862472153452557,0.5664168073400918,0.4911991938192813,0.6613618568153617,0.7314098770492365,0.7065047589905459,0.0,0.8007776134932357,0.0,0.8561726045844433,0.8030671751166155,0.0,0.8803939737444912,0.9040215140181139,0.8550661926369463,0.7881536258039682,0.7460029180993579,0.0,0.8258595761984369,0.0,0.8648977950222393,0.8267216947582278,0.870460615305301,0.8259315442090146,0.8518060326733896,0.0,0.9072846723979965,0.8381375476746064,1.0,0.7692896235483428,0.7876128943805591,0.0,0.8697083814317885,0.5088517516463823,1.0,1.0,1.0]},{"children_left":[1,2,3,4,5,6,7,8,-1,-1,11,-1,-1,14,15,-1,-1,18,-1,-1,21,-1,23,-1,25,-1,-1,-1,29,30,31,-1,33,34,-1,-1,-1,38,39,40,-1,-1,43,-1,-1,46,47,-1,-1,-1,-1,52,-1,54,55,-1,57,58,59,-1,-1,62,-1,-1,65,66,-1,-1,69,-1,-1,72,-1,-1,75,76,77,78,-1,80,81,82,-1,-1,85,-1,-1,88,89,-1,-1,-1,93,94,-1,96,97,-1,-1,100,-1,-1,103,-1,-1,106,-1,108,-1,110,111,-1,-1,114,115,-1,-1,118,-1,-1,121,-1,123,124,125,-1,127,128,-1,-1,131,-1,-1,134,-1,136,-1,-1,139,-1,141,142,143,-1,-1,-1,-1],"children_right":[74,51,28,27,20,13,10,9,-1,-1,12,-1,-1,17,16,-1,-1,19,-1,-1,22,-1,24,-1,26,-1,-1,-1,50,37,32,-1,36,35,-1,-1,-1,45,42,41,-1,-1,44,-1,-1,49,48,-1,-1,-1,-1,53,-1,71,56,-1,64,61,60,-1,-1,63,-1,-1,68,67,-1,-1,70,-1,-1,73,-1,-1,120,105,92,79,-1,87,84,83,-1,-1,86,-1,-1,91,90,-1,-1,-1,102,95,-1,99,98,-1,-1,101,-1,-1,104,-1,-1,107,-1,109,-1,113,112,-1,-1,117,116,-1,-1,119,-1,-1,122,-1,138,133,126,-1,130,129,-1,-1,132,-1,-1,135,-1,137,-1,-1,140,-1,146,145,144,-1,-1,-1,-1],"feature":[1,12,9,2,0,7,4,0,-2,-2,2,-2,-2,3,11,-2,-2,2,-2,-2,2,-2,3,-2,6,-2,-2,-2,2,0,2,-2,3,0,-2,-2,-2,6,0,4,-2,-2,0,-2,-2,3,1,-2,-2,-2,-2,3,-2,3,2,-2,0,2,3,-2,-2,0,-2,-2,0,6,-2,-2,2,-2,-2,3,-2,-2,5,12,9,3,-2,13,3,2,-2,-2,11,-2,-2,3,2,-2,-2,-2,3,3,-2,4,1,-2,-2,3,-2,-2,2,-2,-2,3,-2,2,-2,0,2,-2,-2,4,7,-2,-2,6,-2,-2,2,-2,12,10,3,-2,13,3,-2,-2,2,-2,-2,0,-2,3,-2,-2,0,-2,2,2,3,-2,-2,-2,-2],"threshold":[28.36500072479248,0.5,0.5,6.700000047683716,56.5,0.5,0.5,41.5,-2.0,-2.0,5.75,-2.0,-2.0,210.0,0.5,-2.0,-2.0,6.049999952316284,-2.0,-2.0,5.349999904632568,-2.0,113.0,-2.0,0.5,-2.0,-2.0,-2.0,6.700000047683716,58.5,5.349999904632568,-2.0,210.0,41.5,-2.0,-2.0,-2.0,0.5,75.5,0.5,-2.0,-2.0,76.5,-2.0,-2.0,210.0,24.964999198913574,-2.0,-2.0,-2.0,-2.0,113.0,-2.0,210.0,5.349999904632568,-2.0,48.5,6.549999952316284,142.5,-2.0,-2.0,35.5,-2.0,-2.0,64.5,0.5,-2.0,-2.0,6.700000047683716,-2.0,-2.0,230.0,-2.0,-2.0,0.5,0.5,0.5,113.0,-2.0,0.5,210.0,5.349999904632568,-2.0,-2.0,0.5,-2.0,-2.0,210.0,5.349999904632568,-2.0,-2.0,-2.0,210.0,113.0,-2.0,0.5,39.239999771118164,-2.0,-2.0,158.5,-2.0,-2.0,5.900000095367432,-2.0,-2.0,113.0,-2.0,5.349999904632568,-2.0,34.5,6.049999952316284,-2.0,-2.0,0.5,0.5,-2.0,-2.0,0.5,-2.0,-2.0,5.349999904632568,-2.0,0.5,0.5,113.0,-2.0,0.5,210.0,-2.0,-2.0,6.700000047683716,-2.0,-2.0,52.5,-2.0,159.0,-2.0,-2.0,58.5,-2.0,6.700000047683716,6.349999904632568,135.0,-2.0,-2.0,-2.0,-2.0],"value":[0.49999999999990047,0.36593405203108365,0.3408925665036699,0.4156127391365808,0.27966752344706103,0.14653211065781038,0.11703709598258029,0.1016746439639165,0.05800786350867092,0.18603943184162247,0.5153664623230073,0.0,0.6735082728489261,0.19315795570669161,0.10343932207078918,0.09980191934793489,0.1539312233398279,1.0,1.0,1.0,0.5086088724223321,0.0,0.6358739267176848,0.0,0.7170184410444503,0.7687144738109758,0.6778877202618232,1.0,0.22701018017916716,0.12942274536522425,0.052895839507325695,0.0,0.08636296885266752,0.0598337296380259,0.026830113429056158,0.18184414611213692,1.0,0.36917669961335314,0.3999038544813749,0.4484968702513037,0.43578611017650787,0.5899885622014398,0.2971329822380165,0.15393122333982834,0.3086172090783919,0.3443171144091692,0.2509335966004217,0.13875109771438018,0.2781974945814974,1.0,1.0,0.5785001427570279,0.0,0.6680307427595721,0.5618735691292904,0.0,0.6894814324905074,0.24664745362256701,0.14782161610883038,0.2984906970569612,0.041948909299655536,0.5776842937406477,0.24229111405835546,0.7509312780989081,0.7480730369453028,0.6375136314067605,0.7010432905624172,0.5705968812438275,0.7970826769067149,0.6705625954613228,1.0,1.0,1.0,1.0,0.6835647053012769,0.660524745107037,0.6456999721463318,0.666957127885265,0.0,0.7420774309855768,0.7560001877745053,0.6566814925508776,0.0,0.7622059840378798,1.0,1.0,1.0,0.7341856121594701,0.6301001227359714,0.0,0.742262581977861,1.0,0.5576894823256369,0.4363241567373807,0.0,0.532583269259187,0.5030889549047578,0.44583152034061063,0.6727720452232454,0.7837768588146963,0.7383664100339368,0.83763400242279,1.0,1.0,1.0,0.7362119918250661,0.0,0.8040633473493947,0.0,0.8783191127378662,0.1562099187687044,0.40504399639714544,0.0,0.8914428683608981,0.8746539509899964,0.8552678328839842,0.8902873887018872,0.9365353256735156,0.9431244866830929,0.9262191565673034,0.8773460781619423,0.0,0.9262364519818294,0.924367460280589,0.9273022492551993,0.0,0.9490362449810064,0.9396935335206613,0.9095779245542047,1.0,0.95778372158593,0.9338351432128771,1.0,0.9080167962808235,0.939460557441119,0.8855624104880467,0.7196356275303644,0.9693787309307982,0.9308879431703388,0.8406672418751798,0.9431792252571606,0.9035371913761395,0.8903170783710517,0.26021543665984154,0.9366016662089169,0.9272767051359186,1.0]},{"children_left":[1,2,3,4,5,6,7,8,-1,-1,11,-1,-1,-1,15,16,17,-1,-1,20,-1,-1,23,24,-1,-1,27,-1,-1,30,-1,-1,33,34,-1,36,37,38,-1,-1,41,-1,-1,44,-1,46,-1,-1,49,50,-1,52,-1,54,-1,-1,57,58,-1,-1,61,-1,-1,64,-1,-1,67,-1,69,70,-1,72,73,74,75,-1,-1,78,-1,-1,81,82,-1,-1,-1,86,87,88,-1,-1,91,-1,-1,-1,95,96,97,98,99,-1,-1,102,-1,-1,105,106,-1,-1,109,-1,-1,112,-1,114,115,-1,-1,-1,119,-1,-1],"children_right":[66,63,32,29,14,13,10,9,-1,-1,12,-1,-1,-1,22,19,18,-1,-1,21,-1,-1,26,25,-1,-1,28,-1,-1,31,-1,-1,48,35,-1,43,40,39,-1,-1,42,-1,-1,45,-1,47,-1,-1,56,51,-1,53,-1,55,-1,-1,60,59,-1,-1,62,-1,-1,65,-1,-1,68,-1,94,71,-1,85,80,77,76,-1,-1,79,-1,-1,84,83,-1,-1,-1,93,90,89,-1,-1,92,-1,-1,-1,118,111,104,101,100,-1,-1,103,-1,-1,108,107,-1,-1,110,-1,-1,113,-1,117,116,-1,-1,-1,120,-1,-1],"feature":[0,3,4,12,1,5,7,3,-2,-2,11,-2,-2,-2,0,2,14,-2,-2,7,-2,-2,13,1,-2,-2,7,-2,-2,3,-2,-2,13,0,-2,1,1,2,-2,-2,6,-2,-2,2,-2,2,-2,-2,0,3,-2,0,-2,3,-2,-2,6,0,-2,-2,2,-2,-2,3,-2,-2,3,-2,1,2,-2,4,5,3,12,-2,-2,13,-2,-2,11,0,-2,-2,-2,3,9,12,-2,-2,1,-2,-2,-2,3,5,9,4,2,-2,-2,6,-2,-2,6,3,-2,-2,4,-2,-2,2,-2,2,0,-2,-2,-2,9,-2,-2],"threshold":[43.5,210.0,0.5,0.5,35.69499969482422,0.5,0.5,113.0,-2.0,-2.0,0.5,-2.0,-2.0,-2.0,32.5,6.549999952316284,0.5,-2.0,-2.0,0.5,-2.0,-2.0,0.5,44.47999954223633,-2.0,-2.0,0.5,-2.0,-2.0,113.0,-2.0,-2.0,0.5,28.5,-2.0,34.28499984741211,27.385000228881836,6.049999952316284,-2.0,-2.0,0.5,-2.0,-2.0,5.349999904632568,-2.0,6.049999952316284,-2.0,-2.0,38.5,128.0,-2.0,30.5,-2.0,156.5,-2.0,-2.0,0.5,40.5,-2.0,-2.0,5.900000095367432,-2.0,-2.0,230.0,-2.0,-2.0,113.0,-2.0,29.324999809265137,5.349999904632568,-2.0,0.5,0.5,210.0,0.5,-2.0,-2.0,0.5,-2.0,-2.0,0.5,56.5,-2.0,-2.0,-2.0,210.0,0.5,0.5,-2.0,-2.0,25.730000495910645,-2.0,-2.0,-2.0,210.0,0.5,0.5,0.5,5.349999904632568,-2.0,-2.0,0.5,-2.0,-2.0,0.5,180.0,-2.0,-2.0,0.5,-2.0,-2.0,5.349999904632568,-2.0,6.700000047683716,62.5,-2.0,-2.0,-2.0,0.5,-2.0,-2.0],"value":[0.5000000000000197,0.1779821974579642,0.1212131883570199,0.1089349839474399,0.10440271850171647,0.07601180747397042,0.0745455989554661,0.07017511681285901,0.0,0.09893821013997342,0.08046832778935019,0.07178417776665279,0.30959763024300074,0.5648032455612632,0.3803604946151192,0.1910766674799004,0.0778477594677267,0.06602012996848151,0.20872477482613158,0.6143345357888742,0.624604978654987,0.5872950694770813,0.5070698537558168,0.5151881392976194,0.548363195837817,0.36580617203315435,0.49715724760882407,0.4541277007416954,0.5846216485700974,0.21494730446294133,0.0,0.2851615080575541,0.5603829775989373,0.5000064486516623,0.0,0.5447825163316301,0.42493023501173754,0.5782241126090322,0.4605742318940848,0.6628888516739915,0.19376647156571158,0.15059638876321313,0.27163301037138154,0.6758338010344607,0.0,0.7588158301215814,0.6964279406450141,0.8156463367998189,0.6145331565431931,0.7161930496428138,0.0,0.7728564046179636,0.8384815982091997,0.7300050840868083,0.7094811931837056,0.7468079464795626,0.42628368073207945,0.4503456817759716,0.4272191869131345,0.4672064209062257,0.3995956514799511,0.3627388818989687,0.444789309847392,1.0,1.0,1.0,0.6596863507366015,0.0,0.7378442224605584,0.6490466688057235,0.0,0.761063951328748,0.7263844768996972,0.6980388628364292,0.5839605757478662,0.5695149828591016,0.6659673868819972,1.0,1.0,1.0,0.8944574643569181,0.8910420926401604,0.7603313663979219,0.901835818889897,0.9288392947095973,0.8919305189015677,0.8330732674552408,0.8500142048216296,0.8429022814213916,0.8677961154923892,0.7337429494820403,0.4912581290477525,0.7735144527598355,1.0,0.83780626517689,0.7552813712257866,0.7379081769055673,0.7611687420742995,0.7287256260469598,0.0,0.8177456493376924,0.8537868091007916,0.8720808097989118,0.8394740052706591,0.5782241126090333,0.6427058499997718,0.6292776141507324,0.7436955859407459,0.5255013329009921,0.48024369929762545,0.7374718459253947,0.8748998280975264,0.0,0.9198111006876829,0.8737899400878822,0.8159198237241484,0.9006295440355785,1.0,1.0,1.0,1.0]},{"children_left":[1,2,3,4,-1,6,7,8,9,-1,-1,12,-1,-1,15,16,-1,-1,19,-1,-1,22,-1,24,25,-1,-1,28,-1,-1,31,32,33,34,35,-1,-1,-1,39,40,-1,-1,43,-1,-1,46,47,48,-1,-1,51,-1,-1,54,55,-1,-1,58,-1,-1,61,62,-1,64,65,-1,-1,68,-1,-1,71,-1,73,74,-1,-1,77,-1,-1,-1,-1],"children_right":[80,79,30,5,-1,21,14,11,10,-1,-1,13,-1,-1,18,17,-1,-1,20,-1,-1,23,-1,27,26,-1,-1,29,-1,-1,60,45,38,37,36,-1,-1,-1,42,41,-1,-1,44,-1,-1,53,50,49,-1,-1,52,-1,-1,57,56,-1,-1,59,-1,-1,70,63,-1,67,66,-1,-1,69,-1,-1,72,-1,76,75,-1,-1,78,-1,-1,-1,-1],"feature":[2,3,6,2,-2,9,12,1,1,-2,-2,2,-2,-2,1,5,-2,-2,5,-2,-2,3,-2,1,1,-2,-2,5,-2,-2,0,0,0,1,2,-2,-2,-2,11,2,-2,-2,0,-2,-2,12,1,5,-2,-2,10,-2,-2,1,2,-2,-2,0,-2,-2,9,2,-2,4,13,-2,-2,0,-2,-2,2,-2,4,5,-2,-2,0,-2,-2,-2,-2],"threshold":[6.700000047683716,210.0,0.5,5.349999904632568,-2.0,0.5,0.5,27.355000495910645,20.36500072479248,-2.0,-2.0,6.049999952316284,-2.0,-2.0,30.72499942779541,0.5,-2.0,-2.0,0.5,-2.0,-2.0,113.0,-2.0,28.795000076293945,22.88499927520752,-2.0,-2.0,0.5,-2.0,-2.0,50.5,38.5,28.5,49.915000915527344,6.049999952316284,-2.0,-2.0,-2.0,0.5,5.349999904632568,-2.0,-2.0,32.5,-2.0,-2.0,0.5,34.204999923706055,0.5,-2.0,-2.0,0.5,-2.0,-2.0,39.204999923706055,5.349999904632568,-2.0,-2.0,44.5,-2.0,-2.0,0.5,5.349999904632568,-2.0,0.5,0.5,-2.0,-2.0,79.5,-2.0,-2.0,5.349999904632568,-2.0,0.5,0.5,-2.0,-2.0,76.5,-2.0,-2.0,-2.0,-2.0],"value":[0.500000000000082,0.35082742316792803,0.2516895574450226,0.2826854910966662,0.0,0.40262984696405446,0.49648761679415754,0.45216362694858825,0.3160597324875984,0.016028377032311983,0.34487993324811267,0.58212351004414,0.534704143814392,0.6135851583605437,0.6453860732594993,0.5825159850452809,0.513600267555363,0.8185402061266479,0.7342366067201317,0.6894819425312203,0.8746829068706133,0.19024037827985424,0.0,0.2517699021637567,0.15239343225668486,0.018527932713215896,0.21803018342463792,0.6026610579682127,0.5420619626445292,0.90677675898756,0.2289300812237428,0.09465825138296316,0.04940944360674673,0.027680325609610194,0.026325156368686844,0.006911811982836488,0.06284570597875731,0.2792238162051752,0.09295685802756741,0.08693444415543472,0.0,0.13680633473605247,0.2039897834766464,0.0,0.33505021384652156,0.19292236774685023,0.18667974367332077,0.12516943440894196,0.11778708011751514,0.6397113492237044,0.415937538547494,0.4175338252221134,0.40476146552042225,0.2572318643358098,0.16905473630016402,0.0,0.24870505565439727,0.6034738839838272,0.47027617914670605,0.6868472070355737,0.39517526738784853,0.43850954364352884,0.0,0.5708905092036742,0.514677268248942,0.5305361181864414,0.5004133496669292,0.753031201175211,0.7663740227182442,0.6853118605263693,0.25324273326742,0.0,0.3732893018521301,0.3501782649370486,0.32477804784106107,0.6916248005201253,0.5619529485654726,0.634515694598629,0.159831721575698,1.0,1.0]},{"children_left":[1,2,3,4,5,6,7,8,-1,-1,11,-1,-1,-1,15,16,17,-1,-1,20,-1,-1,-1,24,25,26,27,-1,-1,-1,-1,32,-1,-1,35,36,37,38,39,-1,-1,42,-1,-1,45,-1,47,-1,-1,50,-1,52,53,-1,-1,56,-1,-1,59,-1,-1,62,63,64,65,66,67,-1,-1,-1,-1,72,73,-1,75,-1,-1,78,-1,80,-1,-1,83,84,-1,86,87,-1,-1,-1,91,92,93,-1,-1,96,-1,-1,99,100,-1,-1,103,-1,-1,106,107,108,109,-1,111,-1,-1,-1,115,116,117,-1,-1,120,-1,-1,123,124,-1,-1,-1,128,129,130,-1,132,-1,-1,-1,136,-1,138,-1,-1,141,-1,143,144,145,146,147,148,-1,-1,-1,152,153,-1,-1,156,-1,-1,-1,160,161,162,163,-1,-1,166,-1,-1,169,170,-1,-1,173,-1,-1,176,177,178,-1,-1,181,-1,-1,184,-1,186,-1,-1,189,-1,-1],"children_right":[140,61,34,23,14,13,10,9,-1,-1,12,-1,-1,-1,22,19,18,-1,-1,21,-1,-1,-1,31,30,29,28,-1,-1,-1,-1,33,-1,-1,58,49,44,41,40,-1,-1,43,-1,-1,46,-1,48,-1,-1,51,-1,55,54,-1,-1,57,-1,-1,60,-1,-1,105,82,71,70,69,68,-1,-1,-1,-1,77,74,-1,76,-1,-1,79,-1,81,-1,-1,90,85,-1,89,88,-1,-1,-1,98,95,94,-1,-1,97,-1,-1,102,101,-1,-1,104,-1,-1,127,114,113,110,-1,112,-1,-1,-1,122,119,118,-1,-1,121,-1,-1,126,125,-1,-1,-1,135,134,131,-1,133,-1,-1,-1,137,-1,139,-1,-1,142,-1,188,159,158,151,150,149,-1,-1,-1,155,154,-1,-1,157,-1,-1,-1,175,168,165,164,-1,-1,167,-1,-1,172,171,-1,-1,174,-1,-1,183,180,179,-1,-1,182,-1,-1,185,-1,187,-1,-1,190,-1,-1],"feature":[1,0,10,9,0,3,6,0,-2,-2,1,-2,-2,-2,3,11,3,-2,-2,7,-2,-2,-2,4,3,2,2,-2,-2,-2,-2,3,-2,-2,4,0,1,7,0,-2,-2,1,-2,-2,1,-2,3,-2,-2,2,-2,1,6,-2,-2,7,-2,-2,2,-2,-2,9,12,0,4,5,1,-2,-2,-2,-2,6,3,-2,1,-2,-2,3,-2,4,-2,-2,1,2,-2,2,7,-2,-2,-2,5,4,0,-2,-2,6,-2,-2,7,3,-2,-2,2,-2,-2,4,6,3,3,-2,3,-2,-2,-2,0,3,0,-2,-2,2,-2,-2,3,1,-2,-2,-2,3,2,3,-2,0,-2,-2,-2,1,-2,2,-2,-2,2,-2,2,0,3,1,4,11,-2,-2,-2,14,3,-2,-2,7,-2,-2,-2,4,0,3,3,-2,-2,3,-2,-2,9,7,-2,-2,1,-2,-2,7,1,5,-2,-2,3,-2,-2,3,-2,3,-2,-2,13,-2,-2],"threshold":[27.454999923706055,48.5,0.5,0.5,39.5,210.0,0.5,17.5,-2.0,-2.0,16.010000228881836,-2.0,-2.0,-2.0,210.0,0.5,113.0,-2.0,-2.0,0.5,-2.0,-2.0,-2.0,0.5,210.0,6.700000047683716,5.349999904632568,-2.0,-2.0,-2.0,-2.0,156.5,-2.0,-2.0,0.5,25.5,24.280000686645508,0.5,22.5,-2.0,-2.0,20.289999961853027,-2.0,-2.0,27.30500030517578,-2.0,158.5,-2.0,-2.0,6.549999952316284,-2.0,26.145000457763672,0.5,-2.0,-2.0,0.5,-2.0,-2.0,5.75,-2.0,-2.0,0.5,0.5,56.5,0.5,0.5,24.204999923706055,-2.0,-2.0,-2.0,-2.0,0.5,113.0,-2.0,20.364999771118164,-2.0,-2.0,113.0,-2.0,0.5,-2.0,-2.0,24.09500026702881,5.349999904632568,-2.0,6.700000047683716,0.5,-2.0,-2.0,-2.0,0.5,0.5,64.5,-2.0,-2.0,0.5,-2.0,-2.0,0.5,142.5,-2.0,-2.0,5.349999904632568,-2.0,-2.0,0.5,0.5,210.0,113.0,-2.0,158.5,-2.0,-2.0,-2.0,62.5,180.0,49.5,-2.0,-2.0,5.349999904632568,-2.0,-2.0,210.0,19.619999885559082,-2.0,-2.0,-2.0,159.5,6.549999952316284,113.0,-2.0,58.5,-2.0,-2.0,-2.0,24.875,-2.0,6.549999952316284,-2.0,-2.0,5.349999904632568,-2.0,6.700000047683716,38.5,210.0,33.56500053405762,0.5,0.5,-2.0,-2.0,-2.0,0.5,113.0,-2.0,-2.0,0.5,-2.0,-2.0,-2.0,0.5,53.5,210.0,113.0,-2.0,-2.0,230.0,-2.0,-2.0,0.5,0.5,-2.0,-2.0,44.40999984741211,-2.0,-2.0,0.5,38.42500114440918,0.5,-2.0,-2.0,113.0,-2.0,-2.0,113.0,-2.0,210.0,-2.0,-2.0,0.5,-2.0,-2.0],"value":[0.49999999999991185,0.35875227143154476,0.13559050972823353,0.12232576714730256,0.17041609187238504,0.12392730163103698,0.0787182709980569,0.11368823691488222,0.0073624323412789135,0.162613427706372,0.057558841819429676,0.27852193116052404,0.05066792984641992,1.0,0.3043756491407863,0.2306177876192894,0.22786193808791186,0.0,0.29847992165774445,0.2576211137250487,0.19268327214658493,0.35271954381907816,1.0,0.07736092679049207,0.0744364955991136,0.04039584077669221,0.019709450731770713,0.0,0.03273170719974883,1.0,1.0,0.47793618022161816,0.0,0.7275304086646046,0.2679625890510135,0.2380477578127755,0.12871135391056412,0.2288006505794228,0.12865967124077948,0.19414262586586695,0.0,0.37457339413133683,0.5929062953386774,0.2737625652118589,0.026070404454610396,0.0,0.04551096323274609,0.0,0.2027416167556796,0.27383455395539796,0.1585891718571493,0.7261172310559801,0.5717467934939777,0.7193635465170596,0.43717979557716347,0.8140320062103726,0.830005155549378,0.7871030913414464,0.7209822176577614,0.2691631220287594,0.8192053472796051,0.5787298969480684,0.6226758081443374,0.6105104928156064,0.4260851075511179,0.3639941594264923,0.3507658461272578,0.11456608927134243,0.4300597342030172,0.6733260589061247,0.7527172132323914,0.6635937866029178,0.7226661657090075,0.0,0.7885706109684949,0.33981402230478075,0.7969567209496634,0.6199130517675246,0.0,0.699446935433028,0.6759603865830693,0.7895570219865651,0.6647171663246842,0.5369515430892089,0.0,0.6595491129829897,0.5229220058970381,0.3781653222875075,0.6763408748393537,1.0,0.703009853489561,0.6833765251928641,0.6443351135717073,0.5009660710893614,0.7361263535238568,0.8248702038145548,0.8847479624177225,0.7335263171405558,0.80828226620907,0.8621074201802859,0.7936013712897066,0.9091982509825172,0.7759835576476828,0.0,0.8497235387045814,0.45925360680231486,0.42796787889118304,0.4723074515032921,0.3544310183171277,0.0,0.444247142327342,0.3867097922470271,0.5411677671123943,1.0,0.3892309885092465,0.22742650322570926,0.14685560366708206,0.0,0.1574757116141104,0.6318812787754713,0.0,0.7247875950558569,0.4821312347894312,0.3780051412966024,0.7230529102335772,0.3555203820428277,1.0,0.6796037077311737,0.39901147914565416,0.20616594017535184,0.0,0.29418480203372843,0.0,0.3384679272477415,0.7962308265013344,0.9194660670104472,0.8069252322015577,0.9417703617299024,0.8592176703949822,1.0,0.6673604402404543,0.0,0.7748622855395025,0.6517374991286475,0.28894049140497496,0.2037273794518199,0.12412853595274269,0.10906237828026061,0.08404542136225093,0.4262745266574545,0.5482670799911858,0.2938475628861361,0.26467591696871806,0.0,0.3512432264434777,0.5182435321652223,0.5555259457067366,0.4159000716373106,1.0,0.7211603860035226,0.6838591236743085,0.5558151056376762,0.42742812198932734,0.0,0.5218310844124213,1.0,1.0,1.0,0.7472304439225349,0.761393007740564,0.736623599208648,0.7862570111035072,0.6756821679135916,0.6843463602887173,0.4003119271075602,0.8383757329656173,0.841272770328303,0.8053065950152354,0.8015492494675611,0.8457884891333319,0.9157276321693862,0.0,0.9455215236315007,0.8347687702872906,0.0,0.8769896038326463,0.8329955706946716,1.0,1.0,1.0,1.0]},{"children_left":[1,2,3,-1,5,6,7,8,9,-1,-1,12,-1,-1,15,16,-1,-1,-1,20,21,22,-1,-1,-1,26,27,-1,-1,30,-1,-1,33,34,35,-1,37,-1,-1,40,41,-1,-1,-1,-1,46,47,-1,-1,50,51,52,53,54,-1,-1,57,-1,-1,60,-1,62,-1,-1,-1,66,67,68,-1,70,-1,-1,73,-1,-1,76,-1,78,79,-1,-1,82,-1,-1,85,86,87,88,89,90,91,-1,-1,94,-1,-1,97,98,-1,-1,101,-1,-1,104,105,106,-1,-1,109,-1,-1,112,-1,-1,115,116,117,118,-1,-1,121,-1,-1,124,125,-1,-1,128,-1,-1,131,132,-1,-1,-1,136,137,138,139,140,-1,-1,143,-1,-1,146,147,-1,-1,-1,151,-1,-1,154,-1,156,157,158,-1,-1,161,-1,-1,164,-1,-1,167,168,169,170,-1,172,173,-1,-1,176,-1,-1,-1,180,-1,-1,183,184,185,186,187,-1,-1,-1,-1,-1,193,194,195,-1,197,-1,-1,200,201,-1,-1,204,-1,-1,-1],"children_right":[84,45,4,-1,32,19,14,11,10,-1,-1,13,-1,-1,18,17,-1,-1,-1,25,24,23,-1,-1,-1,29,28,-1,-1,31,-1,-1,44,39,36,-1,38,-1,-1,43,42,-1,-1,-1,-1,49,48,-1,-1,65,64,59,56,55,-1,-1,58,-1,-1,61,-1,63,-1,-1,-1,75,72,69,-1,71,-1,-1,74,-1,-1,77,-1,81,80,-1,-1,83,-1,-1,166,135,114,103,96,93,92,-1,-1,95,-1,-1,100,99,-1,-1,102,-1,-1,111,108,107,-1,-1,110,-1,-1,113,-1,-1,130,123,120,119,-1,-1,122,-1,-1,127,126,-1,-1,129,-1,-1,134,133,-1,-1,-1,153,150,145,142,141,-1,-1,144,-1,-1,149,148,-1,-1,-1,152,-1,-1,155,-1,163,160,159,-1,-1,162,-1,-1,165,-1,-1,182,179,178,171,-1,175,174,-1,-1,177,-1,-1,-1,181,-1,-1,192,191,190,189,188,-1,-1,-1,-1,-1,206,199,196,-1,198,-1,-1,203,202,-1,-1,205,-1,-1,-1],"feature":[6,9,3,-2,5,12,0,11,0,-2,-2,1,-2,-2,13,4,-2,-2,-2,4,3,2,-2,-2,-2,0,0,-2,-2,0,-2,-2,3,4,2,-2,11,-2,-2,10,12,-2,-2,-2,-2,1,3,-2,-2,1,2,5,0,2,-2,-2,1,-2,-2,0,-2,1,-2,-2,-2,0,1,1,-2,3,-2,-2,1,-2,-2,2,-2,5,3,-2,-2,3,-2,-2,10,13,4,0,0,2,0,-2,-2,9,-2,-2,0,1,-2,-2,2,-2,-2,3,2,12,-2,-2,0,-2,-2,3,-2,-2,5,9,1,3,-2,-2,11,-2,-2,3,3,-2,-2,0,-2,-2,0,0,-2,-2,-2,5,2,0,4,1,-2,-2,2,-2,-2,3,1,-2,-2,-2,1,-2,-2,2,-2,0,4,2,-2,-2,2,-2,-2,2,-2,-2,1,5,2,2,-2,0,4,-2,-2,1,-2,-2,-2,3,-2,-2,1,5,1,2,3,-2,-2,-2,-2,-2,4,0,2,-2,2,-2,-2,0,1,-2,-2,0,-2,-2,-2],"threshold":[0.5,0.5,113.0,-2.0,0.5,0.5,41.5,0.5,13.5,-2.0,-2.0,24.46500015258789,-2.0,-2.0,0.5,0.5,-2.0,-2.0,-2.0,0.5,210.0,5.349999904632568,-2.0,-2.0,-2.0,55.5,52.5,-2.0,-2.0,69.5,-2.0,-2.0,210.0,0.5,5.349999904632568,-2.0,0.5,-2.0,-2.0,0.5,0.5,-2.0,-2.0,-2.0,-2.0,24.489999771118164,159.5,-2.0,-2.0,30.494999885559082,6.700000047683716,0.5,44.5,5.349999904632568,-2.0,-2.0,24.6850004196167,-2.0,-2.0,57.5,-2.0,27.97000026702881,-2.0,-2.0,-2.0,35.5,40.32500076293945,33.53999900817871,-2.0,159.5,-2.0,-2.0,44.59499931335449,-2.0,-2.0,5.349999904632568,-2.0,0.5,113.0,-2.0,-2.0,157.0,-2.0,-2.0,0.5,0.5,0.5,38.5,28.5,6.349999904632568,25.5,-2.0,-2.0,0.5,-2.0,-2.0,35.5,30.719999313354492,-2.0,-2.0,6.549999952316284,-2.0,-2.0,210.0,6.700000047683716,0.5,-2.0,-2.0,47.5,-2.0,-2.0,230.0,-2.0,-2.0,0.5,0.5,29.195000648498535,113.0,-2.0,-2.0,0.5,-2.0,-2.0,158.5,113.0,-2.0,-2.0,56.5,-2.0,-2.0,73.5,58.5,-2.0,-2.0,-2.0,0.5,6.700000047683716,49.5,0.5,31.664999961853027,-2.0,-2.0,5.349999904632568,-2.0,-2.0,210.0,33.68499946594238,-2.0,-2.0,-2.0,22.1200008392334,-2.0,-2.0,5.349999904632568,-2.0,79.5,0.5,6.549999952316284,-2.0,-2.0,6.349999904632568,-2.0,-2.0,6.549999952316284,-2.0,-2.0,27.84500026702881,0.5,6.700000047683716,5.349999904632568,-2.0,59.5,0.5,-2.0,-2.0,26.484999656677246,-2.0,-2.0,-2.0,158.5,-2.0,-2.0,35.57500076293945,0.5,35.03000068664551,6.700000047683716,180.0,-2.0,-2.0,-2.0,-2.0,-2.0,0.5,37.5,5.349999904632568,-2.0,6.549999952316284,-2.0,-2.0,54.5,37.23500061035156,-2.0,-2.0,60.5,-2.0,-2.0,-2.0],"value":[0.5000000000000945,0.5363856447155381,0.6184847748244923,0.0,0.6977615912774041,0.6691727717264513,0.6353074100952316,0.302814777491862,0.2984274083728123,0.016165015336408017,0.32953028073540663,0.3703251224222246,0.0,0.42434359154576007,0.7534999770447796,0.7441522608043089,0.7062543096492108,0.8748153069773932,0.7604795224771579,0.783367502879388,0.7429637846655779,0.6237472825152529,0.0,0.7460654214739281,1.0,0.8935059056472019,0.8426666325831225,0.8798743388708721,0.7170464317925986,0.9071889039484274,0.9250124042573195,0.8772821539733516,0.877023928761464,0.8233595610247634,0.8031546671977328,0.0,0.880539817351015,0.8795687826885977,0.8941481106906833,0.8721977730052903,0.855420626751095,0.8288107709760965,0.8846109336083925,0.9394497060011671,1.0,0.3214297013901946,0.0481261565365928,0.03286680486731961,0.12632798196560052,0.4205463865114113,0.35269414522259224,0.22275495427551098,0.19159913780504112,0.05474471646787932,0.0,0.09097005333647827,0.3225363184918324,0.6080766995932596,0.3159137018407881,0.5775373665480428,0.0,0.6337013853011495,0.5820078496178474,0.7939747758399842,1.0,0.6484386339051148,0.12561366446207617,0.0630111240374257,0.0,0.12798204006044872,0.0,0.36990468976835195,0.372016453939127,0.5378158458244111,0.0,0.7365293750892035,0.0,0.8224350623583319,0.7880012807508363,0.0,0.8475759950609647,0.936280584374809,0.9114183909396611,0.952992475543775,0.47143965858355164,0.4681751812382441,0.43285108116424165,0.37199881507360105,0.08288495256424308,0.04255509273916998,0.010879249632300721,0.00526484305909291,0.05434105306885469,0.17359149475092095,0.39798286326312005,0.10800914371522666,0.1826213239232052,0.15923872471141637,0.06473889030533857,0.38267771489348,0.2323844947469226,0.12140129795231147,0.6696747189745631,0.5254117073938163,0.3919947640281387,0.2591300427931318,0.24653185864156013,0.30267330445580376,1.0,1.0,1.0,1.0,1.0,1.0,0.815061920212037,0.7980811194369852,0.8191179222822113,0.743188081634407,0.0,0.8040332889996512,0.869101364602059,0.880316238782625,0.8115626843924231,0.7545268521125313,0.47249668428330155,0.0,0.5928628634535781,0.916641627743693,0.815658150457527,0.9348289575750615,0.8974885064022188,0.9470566371395394,0.9813059936762801,0.9128369974316312,0.7960449695139956,0.5107183577814721,0.48249296481653814,0.3280375916591834,0.13495409531478517,0.11577988130792281,0.05794071401948092,0.313318327871129,0.5636605870618406,0.0,0.6527447068665936,0.5222225044306827,0.3997503975380224,0.30851915220503906,0.631343964199647,1.0,1.0,1.0,1.0,0.8862628834636567,0.0,0.9245733444679795,0.9370728409049376,0.9331715050034676,0.9043909866573996,0.9799490178883299,0.9453449497010875,0.9156875,0.9702220652509823,0.8980208114121562,0.7734144047299113,0.9904008652741162,0.5038998625938207,0.3287778154281813,0.28891609298038107,0.1918479986643554,0.0,0.28817565637946857,0.133535888704991,0.13186684607734134,0.16744574099683412,0.6586512154833801,0.43108081600627673,0.8059230987310062,1.0,0.7917197403058585,0.6441415695757308,0.8941481106906833,0.66846242856124,0.5834289961253405,0.5585606765811305,0.5733031157778035,0.34116888862875305,0.1751616996783946,0.8063233256682611,1.0,0.0,0.8398223022908264,0.7641770804087452,0.7466227726606934,0.44355134740339586,0.0,0.6017594615339197,0.44978378520617135,0.8162773853668199,0.8511795655125591,0.7886171762673828,0.8398223022908264,0.7674841452636877,0.9263377525125519,0.9524949818642815,0.8967849546282268,0.856063165756762]},{"children_left":[1,2,-1,4,5,6,7,8,9,-1,-1,12,-1,-1,15,16,-1,-1,-1,20,21,22,-1,-1,-1,26,27,-1,-1,-1,31,32,33,34,-1,-1,-1,38,-1,-1,41,42,43,-1,-1,46,-1,-1,49,50,-1,-1,53,-1,-1,56,57,58,-1,60,61,-1,-1,64,-1,-1,67,68,-1,70,-1,-1,73,-1,75,-1,-1,78,79,80,81,-1,-1,84,-1,-1,87,88,-1,-1,91,-1,-1,94,95,96,-1,-1,99,-1,-1,102,103,-1,-1,-1,107,-1,-1],"children_right":[106,3,-1,55,30,19,14,11,10,-1,-1,13,-1,-1,18,17,-1,-1,-1,25,24,23,-1,-1,-1,29,28,-1,-1,-1,40,37,36,35,-1,-1,-1,39,-1,-1,48,45,44,-1,-1,47,-1,-1,52,51,-1,-1,54,-1,-1,77,66,59,-1,63,62,-1,-1,65,-1,-1,72,69,-1,71,-1,-1,74,-1,76,-1,-1,93,86,83,82,-1,-1,85,-1,-1,90,89,-1,-1,92,-1,-1,101,98,97,-1,-1,100,-1,-1,105,104,-1,-1,-1,108,-1,-1],"feature":[2,2,-2,0,0,0,13,9,7,-2,-2,6,-2,-2,2,2,-2,-2,-2,7,14,11,-2,-2,-2,3,1,-2,-2,-2,2,13,3,2,-2,-2,-2,0,-2,-2,6,11,14,-2,-2,1,-2,-2,1,0,-2,-2,1,-2,-2,9,4,3,-2,7,1,-2,-2,0,-2,-2,13,3,-2,5,-2,-2,3,-2,5,-2,-2,1,0,0,0,-2,-2,0,-2,-2,4,3,-2,-2,3,-2,-2,7,4,3,-2,-2,2,-2,-2,2,5,-2,-2,-2,3,-2,-2],"threshold":[6.700000047683716,5.349999904632568,-2.0,41.5,27.5,13.5,0.5,0.5,0.5,-2.0,-2.0,0.5,-2.0,-2.0,6.1499998569488525,5.900000095367432,-2.0,-2.0,-2.0,0.5,0.5,0.5,-2.0,-2.0,-2.0,180.0,21.789999961853027,-2.0,-2.0,-2.0,6.1499998569488525,0.5,210.0,5.75,-2.0,-2.0,-2.0,38.5,-2.0,-2.0,0.5,0.5,0.5,-2.0,-2.0,28.3100004196167,-2.0,-2.0,37.14999961853027,38.5,-2.0,-2.0,45.64000129699707,-2.0,-2.0,0.5,0.5,113.0,-2.0,0.5,27.52500057220459,-2.0,-2.0,53.5,-2.0,-2.0,0.5,113.0,-2.0,0.5,-2.0,-2.0,113.0,-2.0,0.5,-2.0,-2.0,29.25,54.5,50.5,44.5,-2.0,-2.0,53.5,-2.0,-2.0,0.5,210.0,-2.0,-2.0,158.5,-2.0,-2.0,0.5,0.5,180.0,-2.0,-2.0,6.1499998569488525,-2.0,-2.0,6.349999904632568,0.5,-2.0,-2.0,-2.0,128.0,-2.0,-2.0],"value":[0.5000000000000026,0.3500288961664395,0.0,0.47821224125383727,0.1560460680123137,0.05920396481966165,0.029811525759484946,0.021432461673713904,0.10452386931805221,0.0,0.19262344656390193,0.018214723471439095,0.011737364531277836,0.025155991507065673,0.07730265934993714,0.13691757880256042,0.0,0.23599530921790277,0.0,0.0829467461180382,0.05837135464063095,0.0482556376197403,0.047608479376573656,0.06505852887365225,0.19376956379892632,0.11918810035355097,0.07251535089958838,0.16999925736140564,0.04429358349460248,0.42468055618077954,0.27749185807075866,0.30315266260907064,0.28661334755551005,0.22464627993873165,0.11414040210604774,0.25401006913916035,1.0,0.3256141473855642,0.27093096136398254,0.4650755274733096,0.24136047073129013,0.31630172417515673,0.303092393114129,0.2849666218858778,0.4550491998807276,0.49669107675617047,0.0,0.7069428091644309,0.19229535113313476,0.12001779691995894,0.08986759766546984,0.23440694552889194,0.5500463152633728,0.6205998878599115,0.29996560215341445,0.6295491999100713,0.6687317404541445,0.6258185932231627,0.0,0.70890488943273,0.672187520286145,0.5386142397883303,0.7755767610927928,0.7520022201404221,0.6135241315694863,0.8016043105889721,0.8157388711807778,0.8218314516509997,0.0,0.8629288330747187,0.8439732587455326,0.9192733977148245,0.8091273752296895,0.0,0.8635357375139269,0.8584138273703688,0.89950672505147,0.4742450881709686,0.41421375588838033,0.23536874884097678,0.21028549818934664,0.27384129974803617,0.17478948285201013,0.2899843484609329,0.3315858704740205,0.14033111491702974,0.4840713782736858,0.446151953914513,0.29885440370438143,1.0,0.7297922610795499,0.4399596389344506,0.8864700020779418,0.6223121745474914,0.594124135609424,0.5615706068553453,0.35110330902838227,0.9353747142875385,0.7625121443442054,0.5268222517889892,0.8522221157662775,0.6590334760406896,0.5945011248201574,0.5412698694189773,0.8336153069972461,0.7582201640847942,1.0,1.0,1.0]},{"children_left":[1,2,3,4,-1,6,-1,8,9,10,-1,-1,13,-1,-1,16,17,-1,-1,20,-1,-1,-1,24,-1,26,27,-1,29,30,31,-1,-1,34,-1,-1,37,38,-1,-1,41,-1,-1,44,-1,46,47,-1,-1,-1,-1],"children_right":[50,23,22,5,-1,7,-1,15,12,11,-1,-1,14,-1,-1,19,18,-1,-1,21,-1,-1,-1,25,-1,43,28,-1,36,33,32,-1,-1,35,-1,-1,40,39,-1,-1,42,-1,-1,45,-1,49,48,-1,-1,-1,-1],"feature":[2,4,3,2,-2,3,-2,12,5,9,-2,-2,3,-2,-2,5,0,-2,-2,6,-2,-2,-2,3,-2,14,2,-2,0,7,11,-2,-2,3,-2,-2,13,9,-2,-2,5,-2,-2,2,-2,0,7,-2,-2,-2,-2],"threshold":[6.700000047683716,0.5,210.0,5.349999904632568,-2.0,113.0,-2.0,0.5,0.5,0.5,-2.0,-2.0,150.0,-2.0,-2.0,0.5,51.5,-2.0,-2.0,0.5,-2.0,-2.0,-2.0,113.0,-2.0,0.5,5.349999904632568,-2.0,59.5,0.5,0.5,-2.0,-2.0,210.0,-2.0,-2.0,0.5,0.5,-2.0,-2.0,0.5,-2.0,-2.0,5.349999904632568,-2.0,73.0,0.5,-2.0,-2.0,-2.0,-2.0],"value":[0.5000000000000164,0.3552818569398626,0.31121294778270747,0.2124825793638845,0.0,0.31563615108835075,0.0,0.4004161100204857,0.36981043318468365,0.34651823880732335,0.41762961144187616,0.2159365729755747,0.7758838108159003,0.8228077007563221,0.7107634240340789,0.6194238046892433,0.5847762213058286,0.30739196758873133,0.6757023711891817,0.813768125237857,0.8406770227080467,0.7214036337997203,1.0,0.6750659184729672,0.0,0.7489205127854021,0.7448177109165334,0.0,0.830906103060854,0.7662336434190006,0.7667134864897028,0.7629751759345884,0.8217386423171918,0.7656369419994736,0.6980197264440392,1.0,0.862051475355073,0.8528315029721795,0.8707002162742902,0.7899743057146589,0.8714729809974334,0.8666289298099501,0.8989330937994914,0.7996052997181051,0.0,0.8618156222004182,0.897323217796806,0.8776115823866192,0.9199862957602002,0.5245308371030591,1.0]},{"children_left":[1,2,3,4,5,6,7,8,-1,-1,11,-1,-1,-1,15,16,17,-1,-1,-1,21,-1,-1,24,-1,26,27,28,-1,-1,31,-1,-1,34,35,-1,-1,38,-1,-1,41,-1,43,44,45,46,-1,-1,-1,-1,51,52,-1,54,-1,-1,57,58,-1,-1,61,-1,-1,64,65,66,67,68,69,-1,-1,72,-1,-1,75,-1,-1,78,79,80,-1,-1,83,-1,-1,86,87,-1,-1,90,-1,-1,93,94,95,-1,-1,-1,-1,100,101,-1,103,-1,105,-1,107,-1,-1,110,-1,112,-1,-1,115,-1,117,118,119,-1,121,122,-1,124,-1,-1,-1,128,-1,130,131,132,-1,-1,-1,136,-1,138,-1,-1,141,142,-1,144,145,-1,147,-1,-1,150,-1,-1,153,154,155,-1,-1,158,-1,-1,161,-1,-1],"children_right":[114,63,40,23,14,13,10,9,-1,-1,12,-1,-1,-1,20,19,18,-1,-1,-1,22,-1,-1,25,-1,33,30,29,-1,-1,32,-1,-1,37,36,-1,-1,39,-1,-1,42,-1,50,49,48,47,-1,-1,-1,-1,56,53,-1,55,-1,-1,60,59,-1,-1,62,-1,-1,99,92,77,74,71,70,-1,-1,73,-1,-1,76,-1,-1,85,82,81,-1,-1,84,-1,-1,89,88,-1,-1,91,-1,-1,98,97,96,-1,-1,-1,-1,109,102,-1,104,-1,106,-1,108,-1,-1,111,-1,113,-1,-1,116,-1,140,127,120,-1,126,123,-1,125,-1,-1,-1,129,-1,135,134,133,-1,-1,-1,137,-1,139,-1,-1,152,143,-1,149,146,-1,148,-1,-1,151,-1,-1,160,157,156,-1,-1,159,-1,-1,162,-1,-1],"feature":[5,14,12,0,4,2,1,3,-2,-2,2,-2,-2,-2,9,1,1,-2,-2,-2,0,-2,-2,2,-2,1,7,4,-2,-2,9,-2,-2,2,0,-2,-2,1,-2,-2,2,-2,0,2,2,7,-2,-2,-2,-2,7,3,-2,0,-2,-2,1,1,-2,-2,1,-2,-2,1,4,6,3,0,2,-2,-2,0,-2,-2,1,-2,-2,1,3,3,-2,-2,2,-2,-2,0,2,-2,-2,1,-2,-2,1,2,0,-2,-2,-2,-2,4,6,-2,3,-2,2,-2,2,-2,-2,6,-2,1,-2,-2,0,-2,4,1,3,-2,3,2,-2,14,-2,-2,-2,2,-2,6,2,3,-2,-2,-2,0,-2,2,-2,-2,13,3,-2,9,0,-2,10,-2,-2,0,-2,-2,7,0,1,-2,-2,3,-2,-2,3,-2,-2],"threshold":[0.5,0.5,0.5,42.5,0.5,6.700000047683716,30.8149995803833,210.0,-2.0,-2.0,5.349999904632568,-2.0,-2.0,-2.0,0.5,46.739999771118164,41.5,-2.0,-2.0,-2.0,34.5,-2.0,-2.0,5.349999904632568,-2.0,28.0649995803833,0.5,0.5,-2.0,-2.0,0.5,-2.0,-2.0,6.700000047683716,60.5,-2.0,-2.0,28.399999618530273,-2.0,-2.0,5.349999904632568,-2.0,41.5,6.549999952316284,6.349999904632568,0.5,-2.0,-2.0,-2.0,-2.0,0.5,113.0,-2.0,58.5,-2.0,-2.0,31.510000228881836,23.969999313354492,-2.0,-2.0,35.31500053405762,-2.0,-2.0,29.38499927520752,0.5,0.5,180.0,53.5,6.349999904632568,-2.0,-2.0,74.5,-2.0,-2.0,25.829999923706055,-2.0,-2.0,26.045000076293945,135.0,113.0,-2.0,-2.0,6.349999904632568,-2.0,-2.0,50.5,5.75,-2.0,-2.0,27.52999973297119,-2.0,-2.0,27.71500015258789,6.049999952316284,67.0,-2.0,-2.0,-2.0,-2.0,0.5,0.5,-2.0,113.0,-2.0,5.349999904632568,-2.0,6.700000047683716,-2.0,-2.0,0.5,-2.0,37.80999946594238,-2.0,-2.0,37.5,-2.0,0.5,28.704999923706055,113.0,-2.0,210.0,5.349999904632568,-2.0,0.5,-2.0,-2.0,-2.0,5.349999904632568,-2.0,0.5,6.549999952316284,113.0,-2.0,-2.0,-2.0,53.5,-2.0,6.700000047683716,-2.0,-2.0,0.5,113.0,-2.0,0.5,55.5,-2.0,0.5,-2.0,-2.0,79.5,-2.0,-2.0,0.5,72.5,33.16499900817871,-2.0,-2.0,142.5,-2.0,-2.0,158.5,-2.0,-2.0],"value":[0.5000000000001347,0.467523474862459,0.4629891907075199,0.435622704406644,0.16137693696197256,0.14633938498138183,0.08011537548886494,0.04963347025732317,0.02912097016682951,1.0,0.24155070422329575,0.0,0.35921794914193805,1.0,0.6608733357248368,0.6736871474595103,0.6412553380970089,0.6695247285739425,0.19550194278017988,0.8769734239579963,0.5789027591918844,0.3861150988008782,0.6752292271544188,0.6118273673815231,0.0,0.7292355902900686,0.626913350619311,0.5788457466962293,0.5429291623392237,0.7760633853998637,0.6890650449286048,0.7254935465521792,0.6283604374002959,0.821228014604137,0.7225996689522893,0.6489772333704115,0.8030822939975466,1.0,1.0,1.0,0.6441041438521781,0.0,0.7538518324179314,0.2829004583570368,0.11645371550595199,0.1371843253810137,0.11029722719121147,0.1814054346249363,0.0,0.621067789100576,0.7942120287546831,0.7579465166427647,0.0,0.816659207945737,0.7249210652379556,0.8609674513395736,0.8257914497884253,0.7739332310220564,0.7164982627222073,0.7800450806082848,0.900443439483231,0.8634061406252692,0.9336641505484128,0.5270302289443506,0.3802106000589869,0.3388403340327029,0.34726187131982117,0.2087226798520592,0.10361691851629512,0.01679380200860845,0.39633803732545775,0.35123567184780774,0.2995724955775414,0.4450415083320829,0.7949767455338385,0.5339350443984916,0.8358411538487904,0.33353488165058104,0.19162936562775335,0.04968801512143562,0.0,0.14509603255825024,0.28863176744330804,0.07822293504410618,0.6813762014752998,0.41183943707916276,0.1474978709402711,0.0,0.2558471198226796,0.572020579542435,0.5274961817089934,0.71494657967991,0.7341582130476672,0.7886855212176342,0.13088703617561814,0.26276318341486543,0.0,0.9166526866952669,0.32213577099377816,0.7259355309809495,0.6746113646212614,0.6756774303432411,0.6740507603887627,0.0,0.7653039180482462,0.0,0.8465627820603059,0.7293278818075112,1.0,0.9072331624859827,0.8946380578053111,0.914475,0.873716141976783,0.9520555624516991,0.8310201863082858,0.5339350443984916,0.8323918009383109,0.8162937260843598,0.7479913885519183,0.0,0.8137994805190575,0.7247472885827773,0.0,0.8249406714175332,0.8292880728424127,0.7679587990484634,1.0,0.8823238060232497,0.0,0.9328712681687524,0.9180116190865939,0.8351954487255245,0.0,0.884547172639136,0.985922589881342,0.9522029485204601,0.8860574754059644,0.9593199295254303,0.9272362217250865,1.0,0.8760971375262077,0.8602417934801532,0.0,0.8969410831684616,0.9112938405830261,0.9724405611137203,0.8950029929973093,0.8957483847410063,0.8922187882070883,0.8284400241362632,0.8835613956690298,0.6742154980416251,0.9020758863989567,0.9256248685753389,0.9512799063282313,0.9144749999999999,0.9780470823025859,0.890830365413184,0.807099393469872,0.9344548119479623,0.8640104667159814,0.7600850911301067,0.9468673314074488]},{"children_left":[1,2,3,4,5,6,7,8,-1,-1,11,-1,-1,14,-1,-1,17,-1,-1,20,21,-1,23,24,-1,-1,27,-1,-1,-1,31,32,-1,-1,35,36,-1,-1,-1,40,-1,-1,43,44,45,46,47,48,49,-1,-1,52,-1,-1,55,56,-1,-1,59,-1,-1,62,63,-1,65,-1,-1,-1,69,70,-1,72,73,-1,-1,76,-1,-1,79,-1,-1,82,-1,84,-1,86,87,88,-1,-1,91,-1,-1,94,95,-1,-1,98,-1,-1,101,102,103,104,105,106,-1,-1,-1,110,111,-1,-1,114,-1,-1,117,118,-1,-1,-1,122,123,124,-1,126,-1,-1,-1,130,-1,132,133,-1,-1,136,-1,-1,139,140,-1,142,143,144,-1,-1,-1,-1,149,150,-1,152,153,-1,-1,156,-1,-1,159,160,161,-1,-1,-1,165,166,-1,-1,-1],"children_right":[42,39,30,19,16,13,10,9,-1,-1,12,-1,-1,15,-1,-1,18,-1,-1,29,22,-1,26,25,-1,-1,28,-1,-1,-1,34,33,-1,-1,38,37,-1,-1,-1,41,-1,-1,100,81,68,61,54,51,50,-1,-1,53,-1,-1,58,57,-1,-1,60,-1,-1,67,64,-1,66,-1,-1,-1,78,71,-1,75,74,-1,-1,77,-1,-1,80,-1,-1,83,-1,85,-1,93,90,89,-1,-1,92,-1,-1,97,96,-1,-1,99,-1,-1,138,121,116,109,108,107,-1,-1,-1,113,112,-1,-1,115,-1,-1,120,119,-1,-1,-1,129,128,125,-1,127,-1,-1,-1,131,-1,135,134,-1,-1,137,-1,-1,148,141,-1,147,146,145,-1,-1,-1,-1,158,151,-1,155,154,-1,-1,157,-1,-1,164,163,162,-1,-1,-1,168,167,-1,-1,-1],"feature":[0,14,4,1,3,2,7,3,-2,-2,9,-2,-2,7,-2,-2,1,-2,-2,3,3,-2,12,0,-2,-2,2,-2,-2,-2,6,12,-2,-2,9,0,-2,-2,-2,2,-2,-2,12,0,4,9,1,7,13,-2,-2,2,-2,-2,14,3,-2,-2,0,-2,-2,2,6,-2,3,-2,-2,-2,14,3,-2,10,0,-2,-2,6,-2,-2,1,-2,-2,2,-2,3,-2,9,1,5,-2,-2,2,-2,-2,1,4,-2,-2,3,-2,-2,1,0,4,0,2,6,-2,-2,-2,2,6,-2,-2,3,-2,-2,6,1,-2,-2,-2,1,1,6,-2,0,-2,-2,-2,3,-2,7,3,-2,-2,3,-2,-2,0,2,-2,2,6,1,-2,-2,-2,-2,4,3,-2,1,5,-2,-2,5,-2,-2,6,5,2,-2,-2,-2,0,1,-2,-2,-2],"threshold":[44.5,0.5,0.5,31.15499973297119,210.0,6.700000047683716,0.5,113.0,-2.0,-2.0,0.5,-2.0,-2.0,0.5,-2.0,-2.0,20.295000076293945,-2.0,-2.0,210.0,113.0,-2.0,0.5,33.5,-2.0,-2.0,5.75,-2.0,-2.0,-2.0,0.5,0.5,-2.0,-2.0,0.5,30.5,-2.0,-2.0,-2.0,6.700000047683716,-2.0,-2.0,0.5,55.5,0.5,0.5,29.09500026702881,0.5,0.5,-2.0,-2.0,6.700000047683716,-2.0,-2.0,0.5,113.0,-2.0,-2.0,46.5,-2.0,-2.0,6.700000047683716,0.5,-2.0,180.0,-2.0,-2.0,-2.0,0.5,113.0,-2.0,0.5,45.5,-2.0,-2.0,0.5,-2.0,-2.0,32.25999927520752,-2.0,-2.0,5.349999904632568,-2.0,113.0,-2.0,0.5,29.355000495910645,0.5,-2.0,-2.0,6.700000047683716,-2.0,-2.0,28.635000228881836,0.5,-2.0,-2.0,210.0,-2.0,-2.0,31.65499973297119,60.5,0.5,49.5,6.549999952316284,0.5,-2.0,-2.0,-2.0,5.75,0.5,-2.0,-2.0,180.0,-2.0,-2.0,0.5,28.204999923706055,-2.0,-2.0,-2.0,22.489999771118164,21.765000343322754,0.5,-2.0,79.5,-2.0,-2.0,-2.0,113.0,-2.0,0.5,210.0,-2.0,-2.0,210.0,-2.0,-2.0,53.5,5.349999904632568,-2.0,6.700000047683716,0.5,34.52499961853027,-2.0,-2.0,-2.0,-2.0,0.5,113.0,-2.0,33.77000045776367,0.5,-2.0,-2.0,0.5,-2.0,-2.0,0.5,0.5,5.75,-2.0,-2.0,-2.0,69.5,40.3650016784668,-2.0,-2.0,-2.0],"value":[0.49999999999990596,0.18461247443263856,0.1778891325360192,0.15761770520975402,0.10738399481218036,0.07039160069827087,0.03845376131013584,0.03238897991182831,0.0,0.0455919273327253,0.04663094058484292,0.07547269557463779,0.022925190939540784,1.0,1.0,1.0,1.0,1.0,1.0,0.37704776370875914,0.29198384760179785,0.0,0.3762200409941213,0.3685725697236993,0.1705588579110853,0.522301906243005,0.4481895887518672,0.0,0.6387861708291497,1.0,0.6851220180364013,0.6941067953804547,0.6898130053353044,0.7304823074161249,0.6745434194307085,0.6620168074292366,0.357312206687286,0.6907509877058907,0.741586230172123,0.28961237748953106,0.2042580359831999,1.0,0.6653560545206032,0.6481199463605212,0.5200459714727682,0.47586922326614534,0.5144461510878667,0.3328372125724248,0.2951527870058811,0.3149799084412054,0.2826430641982717,0.3848341671261042,0.24351273715620161,1.0,0.6814534238280285,0.6891372579750437,0.0,0.7643461101463314,0.5958649495034568,0.3802907580477676,0.6304502351245149,0.36089533675204993,0.23585365892928611,0.2910768412800077,0.19372214643078092,0.08174295518094234,0.6687348336674322,1.0,0.774131277204661,0.7651748972197878,0.0,0.815755299682112,0.8042906922003797,0.5634396558620989,0.8153198420727801,0.8546933216916662,0.9036263676950242,0.7832577637094705,0.8603321612280607,0.7429980016027755,0.9294008055342412,0.7000158639194048,0.0,0.798558390522284,0.0,0.8520284404577843,0.8744388356602706,0.8287999079983525,0.8107115927434387,0.9152444964516784,0.9203345435693558,0.8654485055620957,1.0,0.7833966554419904,0.7220936430836498,0.6929045560432807,0.8633611798782242,0.8824294801773432,0.8049531859220201,1.0,0.7415211831331732,0.6643980468790573,0.4824923661611973,0.4524510089773613,0.3111628460244356,0.1448574841583138,0.07922552731206062,0.1826943703075503,0.7304823074161249,0.4918636073042171,0.04229254169837651,0.0,0.07163493606608357,0.6612361765056496,0.4473368023861388,0.9661359101178612,0.7055795928702757,0.7522036126336547,0.8006103719508728,0.6534333711002668,0.6277585683360923,0.7269703301019983,0.4298313564920537,0.4674733183304121,0.5464012890904753,0.41806369929119236,0.4816656144781148,0.26223943974622455,0.1646583817419924,0.7483128775617134,0.0,0.8118352549925818,0.7637820198253007,0.670524403261182,1.0,0.8382832788426081,0.7572442019929259,1.0,0.8567175160776331,0.7747961219504391,0.0,0.8606180507545969,0.759561167241589,0.8375059932371052,0.6905976735289838,0.8983085997167991,0.6437335208296715,1.0,0.8734021096241372,0.8565832017476892,0.0,0.9001166812127157,0.8022446940059659,0.764838561463598,0.9204080286260922,0.924157919444532,0.9123098080858146,0.9706698204690671,0.913964022020692,0.9107429846839649,0.9093568399088466,0.7033996432981204,0.9445564705220311,0.91555,0.9178989869529752,0.8955309327805916,0.816986423608898,0.960146399909811,0.9429227528519313]},{"children_left":[1,2,3,4,5,6,-1,8,9,-1,-1,12,-1,-1,-1,16,-1,18,19,20,-1,-1,23,-1,-1,26,-1,-1,29,-1,-1,32,33,34,35,36,37,-1,-1,40,-1,-1,43,44,-1,-1,47,-1,-1,50,51,52,-1,-1,55,-1,-1,58,59,-1,-1,-1,-1,64,65,66,67,-1,69,-1,-1,72,73,-1,-1,-1,77,78,79,-1,-1,82,-1,-1,85,-1,-1,88,-1,90,-1,92,93,-1,-1,96,-1,-1,99,100,101,-1,103,104,105,-1,107,-1,-1,110,-1,-1,113,-1,-1,116,-1,118,119,-1,121,122,-1,-1,125,-1,-1,128,129,130,-1,-1,133,-1,-1,136,-1,138,-1,-1,141,142,143,-1,145,146,-1,-1,-1,150,-1,-1,153,-1,155,-1,157,158,159,-1,-1,-1,-1],"children_right":[98,31,28,15,14,7,-1,11,10,-1,-1,13,-1,-1,-1,17,-1,25,22,21,-1,-1,24,-1,-1,27,-1,-1,30,-1,-1,63,62,49,42,39,38,-1,-1,41,-1,-1,46,45,-1,-1,48,-1,-1,57,54,53,-1,-1,56,-1,-1,61,60,-1,-1,-1,-1,87,76,71,68,-1,70,-1,-1,75,74,-1,-1,-1,84,81,80,-1,-1,83,-1,-1,86,-1,-1,89,-1,91,-1,95,94,-1,-1,97,-1,-1,140,115,102,-1,112,109,106,-1,108,-1,-1,111,-1,-1,114,-1,-1,117,-1,127,120,-1,124,123,-1,-1,126,-1,-1,135,132,131,-1,-1,134,-1,-1,137,-1,139,-1,-1,152,149,144,-1,148,147,-1,-1,-1,151,-1,-1,154,-1,156,-1,162,161,160,-1,-1,-1,-1],"feature":[4,6,2,11,3,3,-2,5,9,-2,-2,2,-2,-2,-2,2,-2,2,2,2,-2,-2,3,-2,-2,1,-2,-2,0,-2,-2,0,2,11,1,10,2,-2,-2,1,-2,-2,12,9,-2,-2,3,-2,-2,0,2,3,-2,-2,3,-2,-2,3,0,-2,-2,-2,-2,13,1,9,2,-2,0,-2,-2,2,1,-2,-2,-2,10,0,0,-2,-2,3,-2,-2,2,-2,-2,2,-2,3,-2,3,0,-2,-2,5,-2,-2,9,0,2,-2,1,6,3,-2,2,-2,-2,13,-2,-2,6,-2,-2,3,-2,5,2,-2,14,2,-2,-2,6,-2,-2,13,3,7,-2,-2,3,-2,-2,2,-2,2,-2,-2,0,1,3,-2,3,7,-2,-2,-2,1,-2,-2,3,-2,2,-2,2,3,2,-2,-2,-2,-2],"threshold":[0.5,0.5,6.700000047683716,0.5,210.0,113.0,-2.0,0.5,0.5,-2.0,-2.0,5.349999904632568,-2.0,-2.0,-2.0,5.349999904632568,-2.0,6.549999952316284,5.900000095367432,5.75,-2.0,-2.0,128.0,-2.0,-2.0,25.619999885559082,-2.0,-2.0,28.5,-2.0,-2.0,50.5,6.700000047683716,0.5,28.574999809265137,0.5,5.349999904632568,-2.0,-2.0,20.045000076293945,-2.0,-2.0,0.5,0.5,-2.0,-2.0,128.0,-2.0,-2.0,35.5,6.1499998569488525,180.0,-2.0,-2.0,156.5,-2.0,-2.0,180.0,37.5,-2.0,-2.0,-2.0,-2.0,0.5,28.644999504089355,0.5,5.349999904632568,-2.0,60.5,-2.0,-2.0,6.700000047683716,24.755000114440918,-2.0,-2.0,-2.0,0.5,59.5,51.5,-2.0,-2.0,113.0,-2.0,-2.0,5.349999904632568,-2.0,-2.0,5.349999904632568,-2.0,113.0,-2.0,210.0,67.5,-2.0,-2.0,0.5,-2.0,-2.0,0.5,42.5,5.349999904632568,-2.0,34.114999771118164,0.5,135.0,-2.0,6.1499998569488525,-2.0,-2.0,0.5,-2.0,-2.0,0.5,-2.0,-2.0,113.0,-2.0,0.5,5.349999904632568,-2.0,0.5,6.700000047683716,-2.0,-2.0,0.5,-2.0,-2.0,0.5,180.0,0.5,-2.0,-2.0,210.0,-2.0,-2.0,5.349999904632568,-2.0,6.700000047683716,-2.0,-2.0,56.5,31.329999923706055,113.0,-2.0,158.5,0.5,-2.0,-2.0,-2.0,35.44499969482422,-2.0,-2.0,113.0,-2.0,5.349999904632568,-2.0,6.700000047683716,158.5,6.349999904632568,-2.0,-2.0,-2.0,-2.0],"value":[0.4999999999998782,0.44680313360753066,0.48631566113764435,0.3456537052951591,0.3425737086284441,0.24338197674564252,0.0,0.31790535831744865,0.28422455607460173,0.36625010002760905,0.14818281231177444,0.7001092532446633,0.0,0.8067862008634732,1.0,0.4172577018870101,0.0,0.5596122387679597,0.5906783581925136,0.6786676950002741,0.6752237078505268,0.6831476420713335,0.526440214036551,0.0,0.6471376662294361,0.2594319762326025,0.3990885025789374,0.1526180447424118,1.0,1.0,1.0,0.4161609021933152,0.21149675656481004,0.12688238975193816,0.12154497208848974,0.05910074937849716,0.05111288061304003,0.0,0.0836358999075378,0.13972801790429346,0.38464249642285997,0.10450128211368798,0.28804524922593244,0.2865970955931643,0.30893035007076397,0.21050701870421004,0.30456885843431475,0.0,0.4251398658536365,0.24816149723990633,0.09888573956261316,0.023476804298317486,0.0,0.23811601801526033,0.2765356029330119,0.0,0.6097833538209555,0.3891500998860635,0.2376319325526402,0.5090106631256343,0.18214133583764494,0.7798361809688361,1.0,0.6193607392732875,0.5925164833670581,0.48620506966530047,0.5478585371475702,0.0,0.6771360359464877,0.573429882232999,0.7217045143500544,0.4134385609395527,0.27049819244804413,0.12266744956591061,0.29843224400629836,1.0,0.739238797295617,0.7307897945192887,0.6347297539761558,0.4655268572942026,0.6531321513733933,0.7756140399190977,0.0,0.83290062028532,0.7885477783349099,0.0,0.8853291341371088,0.6565246168672493,0.0,0.7626757788476407,0.0,0.8253648965744336,0.7448220458554957,0.6803535226599297,0.8136111061781697,1.0,1.0,1.0,0.8008466343625328,0.8127003634527568,0.5879123209917415,0.0,0.6906941269935889,0.5996244095521346,0.5179703734021787,0.0,0.6477822741398369,0.23811601801526025,0.8252592373132434,0.6800249246679811,0.719491075118572,0.6315273982304555,0.7558490650380382,0.8244167857465,0.6948471765112086,0.8256679564306195,0.0,0.8718203379778122,0.8624000514922402,0.0,0.9148114289846664,0.9132351088620605,0.8499843584045932,1.0,0.9312640458066548,0.9550610962715275,0.9125858252090929,0.9148749889284048,0.9240314553723623,0.880976608669885,0.9107899766178025,0.8546159340903869,0.9839949439879528,0.9499383934700716,1.0,0.8956454280056345,0.0,0.9389860472881141,0.8849893489978374,1.0,0.7180720588771055,0.6153974474623533,0.46450936638899715,0.0,0.574352327790624,0.5081413530699468,0.6168630666747658,0.35272324691206164,0.6391241641536647,0.7950572984625858,0.841599429104177,0.7566976471024511,0.7513292003268568,0.0,0.8110125594791346,0.0,0.8895250321370455,0.7977244274626403,0.5597648220663043,0.636390142432537,0.0,0.8889402669062382,1.0]},{"children_left":[1,2,3,4,5,6,7,-1,9,-1,-1,-1,13,14,15,-1,-1,18,-1,-1,21,-1,23,-1,-1,26,27,-1,29,-1,-1,32,33,34,-1,-1,37,-1,-1,40,-1,42,-1,-1,45,46,47,-1,49,50,-1,-1,53,-1,-1,-1,57,58,59,-1,61,-1,-1,64,65,-1,-1,68,-1,-1,71,-1,73,74,-1,-1,77,-1,-1,80,-1,82,-1,84,85,86,87,-1,-1,90,-1,-1,93,-1,-1,96,97,98,-1,-1,101,-1,-1,104,-1,106,-1,-1,109,-1,-1],"children_right":[108,79,44,25,12,11,8,-1,10,-1,-1,-1,20,17,16,-1,-1,19,-1,-1,22,-1,24,-1,-1,31,28,-1,30,-1,-1,39,36,35,-1,-1,38,-1,-1,41,-1,43,-1,-1,56,55,48,-1,52,51,-1,-1,54,-1,-1,-1,70,63,60,-1,62,-1,-1,67,66,-1,-1,69,-1,-1,72,-1,76,75,-1,-1,78,-1,-1,81,-1,83,-1,95,92,89,88,-1,-1,91,-1,-1,94,-1,-1,103,100,99,-1,-1,102,-1,-1,105,-1,107,-1,-1,110,-1,-1],"feature":[3,0,1,11,0,6,3,-2,1,-2,-2,-2,4,10,0,-2,-2,0,-2,-2,2,-2,0,-2,-2,1,2,-2,0,-2,-2,0,7,2,-2,-2,3,-2,-2,7,-2,0,-2,-2,13,2,3,-2,4,0,-2,-2,0,-2,-2,-2,7,0,2,-2,3,-2,-2,4,0,-2,-2,3,-2,-2,2,-2,2,1,-2,-2,1,-2,-2,3,-2,2,-2,5,2,2,3,-2,-2,1,-2,-2,6,-2,-2,1,4,6,-2,-2,11,-2,-2,0,-2,0,-2,-2,14,-2,-2],"threshold":[210.0,46.5,31.425000190734863,0.5,39.5,0.5,113.0,-2.0,19.105000495910645,-2.0,-2.0,-2.0,0.5,0.5,43.5,-2.0,-2.0,43.5,-2.0,-2.0,5.349999904632568,-2.0,42.5,-2.0,-2.0,25.960000038146973,6.349999904632568,-2.0,31.5,-2.0,-2.0,34.5,0.5,6.349999904632568,-2.0,-2.0,142.5,-2.0,-2.0,0.5,-2.0,38.5,-2.0,-2.0,0.5,6.700000047683716,113.0,-2.0,0.5,28.5,-2.0,-2.0,33.5,-2.0,-2.0,-2.0,0.5,34.5,5.75,-2.0,113.0,-2.0,-2.0,0.5,42.5,-2.0,-2.0,135.0,-2.0,-2.0,5.349999904632568,-2.0,6.549999952316284,36.25,-2.0,-2.0,38.579999923706055,-2.0,-2.0,113.0,-2.0,5.349999904632568,-2.0,0.5,6.700000047683716,6.049999952316284,158.5,-2.0,-2.0,28.824999809265137,-2.0,-2.0,0.5,-2.0,-2.0,30.695000648498535,0.5,0.5,-2.0,-2.0,0.5,-2.0,-2.0,54.5,-2.0,79.5,-2.0,-2.0,0.5,-2.0,-2.0],"value":[0.5000000000000933,0.37970062066457233,0.14564139303381612,0.09389157298169482,0.09112450651346506,0.06772460294474603,0.0833112970697741,0.0,0.11568974063898757,0.029715996933457924,0.1430138337939449,0.05539670829301205,0.2057499107785951,0.18566307470210602,0.17991539587812627,0.1461617758723645,0.21971022339398602,0.21920266786022807,0.155018901349958,0.2890034662729272,0.5506657671525307,0.0,0.6504174078625687,0.3189550001742828,0.7410141168456579,0.18313104089750784,0.06319958928267201,0.0,0.2558280407625031,0.0,0.4800556099608282,0.26784390123328305,0.09842651669842777,0.0579831826275401,0.0,0.25786952233338023,0.15113489497524588,0.0,0.27083703309062934,0.40845523084271046,0.2135605483032784,0.5291893676339832,0.7170746520124992,0.3472296665923548,0.36724058641877977,0.399441143011066,0.2630213266891296,0.0,0.3493282695938049,0.3071119318700663,0.04184160047189275,0.39840787193522004,0.6884313181516818,0.0,0.7417645330279972,1.0,0.32342948047976583,0.27171857758091955,0.12637838670523188,0.0,0.2269434608751392,0.0,0.2966566539606298,0.39102535312234254,0.3775077403030121,0.4313547097589258,0.23243244223979298,0.4980231776107857,0.0,0.6768443131805718,0.40260306423587994,0.0,0.5375521857302873,0.43991126708812484,0.22142603277349676,0.6216606906963575,0.7798956445847517,0.565221995243747,0.91505,0.5557628631743214,0.0,0.6440875487454688,0.0,0.7553598429474119,0.7341860714077736,0.6032087357364028,0.5935946643826537,0.5492351451696459,0.6649486117778386,0.6102120007825865,0.515620338847546,0.7287103406455316,1.0,1.0,1.0,0.8799619655825817,0.8351283461511648,0.8213307653411576,0.8142576930753105,0.8318687567679155,0.8745275723954578,0.8811175747833758,0.8383535480961005,0.9420282253763997,0.8909675520532515,0.9469618310948115,0.9519863852178079,0.9173420059825947,1.0,1.0,1.0]},{"children_left":[1,2,3,4,5,6,7,8,-1,-1,11,-1,-1,14,-1,16,-1,-1,19,20,-1,-1,23,-1,-1,26,27,28,-1,-1,31,-1,33,-1,-1,36,37,-1,39,-1,-1,42,43,-1,-1,46,-1,-1,49,-1,51,52,53,54,-1,-1,57,-1,-1,60,61,-1,-1,64,-1,-1,67,68,69,-1,-1,72,-1,-1,75,-1,77,-1,-1,-1,-1],"children_right":[80,79,48,25,18,13,10,9,-1,-1,12,-1,-1,15,-1,17,-1,-1,22,21,-1,-1,24,-1,-1,35,30,29,-1,-1,32,-1,34,-1,-1,41,38,-1,40,-1,-1,45,44,-1,-1,47,-1,-1,50,-1,66,59,56,55,-1,-1,58,-1,-1,63,62,-1,-1,65,-1,-1,74,71,70,-1,-1,73,-1,-1,76,-1,78,-1,-1,-1,-1],"feature":[2,3,0,1,9,4,7,11,-2,-2,0,-2,-2,2,-2,6,-2,-2,4,2,-2,-2,7,-2,-2,0,2,14,-2,-2,3,-2,9,-2,-2,4,3,-2,1,-2,-2,1,0,-2,-2,13,-2,-2,2,-2,5,9,14,4,-2,-2,0,-2,-2,4,1,-2,-2,7,-2,-2,1,12,1,-2,-2,4,-2,-2,7,-2,0,-2,-2,-2,-2],"threshold":[6.700000047683716,210.0,53.5,29.63499927520752,0.5,0.5,0.5,0.5,-2.0,-2.0,27.5,-2.0,-2.0,5.349999904632568,-2.0,0.5,-2.0,-2.0,0.5,5.349999904632568,-2.0,-2.0,0.5,-2.0,-2.0,32.5,5.75,0.5,-2.0,-2.0,113.0,-2.0,0.5,-2.0,-2.0,0.5,113.0,-2.0,39.59499931335449,-2.0,-2.0,42.06999969482422,37.5,-2.0,-2.0,0.5,-2.0,-2.0,5.349999904632568,-2.0,0.5,0.5,0.5,0.5,-2.0,-2.0,79.5,-2.0,-2.0,0.5,29.195000648498535,-2.0,-2.0,0.5,-2.0,-2.0,28.55500030517578,0.5,20.225000381469727,-2.0,-2.0,0.5,-2.0,-2.0,0.5,-2.0,79.5,-2.0,-2.0,-2.0,-2.0],"value":[0.5000000000000251,0.3506432528876264,0.25065019505854397,0.11658677640991787,0.05859029535189363,0.08413416856541729,0.07339107954856337,0.05691850163847873,0.05242996503897603,0.13085522758442827,0.09901167233933399,0.03616619078488336,0.138603285875761,0.3923805637802964,0.0,0.5310445049954585,0.563485887072486,0.498260308493931,0.026534138173753205,0.023978157414696784,0.0,0.040131617551332356,0.3186419839207547,0.52927161334241,0.0,0.2885194788406468,0.09111439010555002,0.0,0.0,0.0,0.17102684639593319,0.0,0.2313546498850004,0.27784312629283725,0.03458809944108168,0.36497168399607527,0.32349341082696986,0.0,0.4153765393777131,0.3264499743387143,0.6220083924329011,0.601572145855625,0.5466076817506995,0.7722133827240295,0.49001005698960703,0.7596049773852958,0.7530111171785652,0.7667991891274127,0.4444932287281361,0.0,0.576825840297207,0.5488056079187138,0.5904572931557738,0.5952097150535488,0.5460218372058697,0.7463889734587618,0.5512610353188707,0.527389497074363,0.637879118481344,0.40346487920619706,0.3877160762892102,0.32400628774393353,0.5581025682247486,0.5409819233740171,0.38758415510790684,0.6666167177014789,0.7506107571558359,0.6303998283732604,0.6019705542213667,0.0,0.6179310114299301,0.7254454315350638,0.6589332498912777,0.8267834560888204,0.85291845053283,0.8191548980049316,0.8699941756075577,0.8862510366673116,0.7300005448205724,1.0,1.0]},{"children_left":[1,2,3,4,5,6,7,-1,-1,10,-1,12,-1,-1,15,16,-1,-1,19,-1,21,-1,-1,24,25,26,27,-1,-1,30,-1,-1,33,34,-1,-1,-1,-1,39,40,-1,42,43,44,-1,-1,-1,48,49,-1,-1,52,-1,-1,55,-1,-1,58,-1,-1,61,62,63,-1,65,66,67,68,-1,-1,71,-1,-1,74,75,-1,-1,78,-1,-1,81,-1,83,84,-1,-1,87,-1,-1,90,91,92,-1,94,-1,96,-1,-1,99,-1,101,102,-1,-1,-1,106,107,-1,109,-1,111,-1,-1,114,-1,116,117,-1,-1,-1,121,122,123,124,-1,-1,-1,128,129,-1,131,132,-1,-1,135,-1,-1,138,-1,-1,141,142,143,144,-1,146,-1,-1,149,150,-1,-1,153,-1,-1,156,-1,158,159,-1,-1,162,-1,-1,165,166,167,-1,-1,170,171,-1,-1,174,-1,-1,177,-1,-1],"children_right":[60,57,38,23,14,9,8,-1,-1,11,-1,13,-1,-1,18,17,-1,-1,20,-1,22,-1,-1,37,32,29,28,-1,-1,31,-1,-1,36,35,-1,-1,-1,-1,54,41,-1,47,46,45,-1,-1,-1,51,50,-1,-1,53,-1,-1,56,-1,-1,59,-1,-1,120,89,64,-1,80,73,70,69,-1,-1,72,-1,-1,77,76,-1,-1,79,-1,-1,82,-1,86,85,-1,-1,88,-1,-1,105,98,93,-1,95,-1,97,-1,-1,100,-1,104,103,-1,-1,-1,113,108,-1,110,-1,112,-1,-1,115,-1,119,118,-1,-1,-1,140,127,126,125,-1,-1,-1,137,130,-1,134,133,-1,-1,136,-1,-1,139,-1,-1,164,155,148,145,-1,147,-1,-1,152,151,-1,-1,154,-1,-1,157,-1,161,160,-1,-1,163,-1,-1,176,169,168,-1,-1,173,172,-1,-1,175,-1,-1,178,-1,-1],"feature":[0,2,0,2,9,2,0,-2,-2,7,-2,3,-2,-2,0,2,-2,-2,2,-2,3,-2,-2,10,1,1,6,-2,-2,1,-2,-2,4,0,-2,-2,-2,-2,5,2,-2,10,3,2,-2,-2,-2,6,3,-2,-2,4,-2,-2,6,-2,-2,4,-2,-2,4,5,10,-2,7,1,3,3,-2,-2,1,-2,-2,1,2,-2,-2,2,-2,-2,2,-2,1,2,-2,-2,2,-2,-2,1,9,2,-2,3,-2,2,-2,-2,2,-2,2,6,-2,-2,-2,7,2,-2,3,-2,1,-2,-2,3,-2,3,2,-2,-2,-2,0,1,0,3,-2,-2,-2,1,2,-2,9,2,-2,-2,2,-2,-2,6,-2,-2,9,5,7,3,-2,3,-2,-2,0,11,-2,-2,0,-2,-2,0,-2,12,2,-2,-2,0,-2,-2,5,0,2,-2,-2,1,1,-2,-2,2,-2,-2,2,-2,-2],"threshold":[43.5,6.700000047683716,28.5,5.75,0.5,5.349999904632568,1.4000000357627869,-2.0,-2.0,0.5,-2.0,150.0,-2.0,-2.0,22.5,3.75,-2.0,-2.0,5.349999904632568,-2.0,142.5,-2.0,-2.0,0.5,18.425000190734863,16.005000114440918,0.5,-2.0,-2.0,17.175000190734863,-2.0,-2.0,0.5,11.5,-2.0,-2.0,-2.0,-2.0,0.5,5.349999904632568,-2.0,0.5,210.0,6.349999904632568,-2.0,-2.0,-2.0,0.5,180.0,-2.0,-2.0,0.5,-2.0,-2.0,0.5,-2.0,-2.0,0.5,-2.0,-2.0,0.5,0.5,0.5,-2.0,0.5,25.505000114440918,158.5,142.5,-2.0,-2.0,23.94499969482422,-2.0,-2.0,34.84499931335449,5.349999904632568,-2.0,-2.0,5.900000095367432,-2.0,-2.0,5.349999904632568,-2.0,26.06999969482422,5.900000095367432,-2.0,-2.0,6.700000047683716,-2.0,-2.0,29.18000030517578,0.5,5.349999904632568,-2.0,113.0,-2.0,6.700000047683716,-2.0,-2.0,5.349999904632568,-2.0,6.549999952316284,0.5,-2.0,-2.0,-2.0,0.5,5.349999904632568,-2.0,113.0,-2.0,34.635000228881836,-2.0,-2.0,113.0,-2.0,210.0,5.349999904632568,-2.0,-2.0,-2.0,53.5,26.385000228881836,50.5,150.0,-2.0,-2.0,-2.0,40.42500114440918,5.349999904632568,-2.0,0.5,6.700000047683716,-2.0,-2.0,6.049999952316284,-2.0,-2.0,0.5,-2.0,-2.0,0.5,0.5,0.5,113.0,-2.0,210.0,-2.0,-2.0,73.5,0.5,-2.0,-2.0,74.5,-2.0,-2.0,56.5,-2.0,0.5,5.349999904632568,-2.0,-2.0,77.5,-2.0,-2.0,0.5,57.5,5.75,-2.0,-2.0,30.369999885559082,25.52999973297119,-2.0,-2.0,5.75,-2.0,-2.0,5.349999904632568,-2.0,-2.0],"value":[0.49999999999997585,0.17235544882000287,0.10379348274175856,0.03935780876685765,0.0026502791742167558,0.0019973281735733753,0.0,0.0,0.0,0.01266256757844947,0.0,0.03294403048484979,0.0,0.06860375196370502,0.003168129271503053,0.0,0.0,0.0,0.026179606001895797,0.0,0.12992921785015182,0.0,0.21416421653154388,0.07382386025860255,0.062282082346355835,0.017344787138527586,0.03207172918957181,0.0,0.06034401474054804,0.006114315113768004,0.01215431491614661,0.0,0.0777839754366252,0.07361632857788972,0.01638703194604326,0.08984601771998915,0.569218041783671,0.23269046670392604,0.18904496532171639,0.18168043850469484,0.0,0.27439833804032465,0.2558898526148657,0.18952424580219396,0.2072368396059638,0.14378163745096106,1.0,0.3758302960972239,0.3969316583710766,0.29753811434945987,0.7756078735336455,0.3584099512343467,0.35100154387654126,0.46254550045237436,0.7743613843106978,0.7032491612219671,0.8084227713433076,1.0,1.0,1.0,0.6618001273876661,0.6201561732722324,0.5948747693436598,0.5932435000397802,0.6100675033819953,0.5595687426065155,0.24790910395831242,0.1026951917073613,0.03734557834223519,0.24644127914406844,0.5707080462061832,0.42087669722241366,0.7483048308915636,0.6350940401036811,0.5647943469695442,0.0,0.6975648694114432,0.8174781387501076,0.12401670751025602,0.915975,0.6559522375724561,0.0,0.7727546342011313,0.42557113842722943,0.0,0.5093737618084376,0.8208312878434774,0.7281365328126775,1.0,0.8120500775856159,0.7517450234516393,0.7894303993667497,0.0,0.8760464359351325,0.0,0.9100495198193387,0.8313075822997171,1.0,0.6165541152408337,0.0,0.7233381082928706,0.6183863884997619,0.5966849550134098,0.6504943262807084,0.9219338842015411,0.8803973926384258,0.8957543482972806,0.0,0.9347310054283261,0.0,0.9524046557706636,0.9399508810218508,0.9615512988052956,0.8707338561834576,0.0,0.910064417378149,0.8684105462160681,0.0,0.9316310599626727,1.0,0.817256396343635,0.7637376252365592,0.47774888595020487,0.2541004639679314,0.17330697078203117,0.33133178394118334,0.6761099651847994,0.7896385162992571,0.7561497230235592,0.0,0.8255017975568905,0.843267054040081,0.7353133873134052,1.0,0.5884211646287235,0.0,0.8059324760168604,0.900323344343084,0.8822779960814788,0.9117190448475934,0.8273796216291354,0.8400879159819531,0.8335068315971929,0.8212885478228378,0.0,0.8666056467640716,0.8096531608890745,1.0,0.851525867198619,0.8368674857030285,0.8377890035294148,0.8247871804745119,0.8864283646263555,0.9406750696010077,0.8787067455465608,0.8717429921983882,0.915975,0.8675092646526349,0.8626596063262864,0.0,0.9166115147316144,0.8764071780181051,0.8124046169232133,0.9324699017890151,0.7474705305740639,0.7281563763488775,0.6055822855735585,0.0,0.7365082045313376,0.7407558867027927,0.6925270062661801,0.5278729266843157,0.7193173846616376,0.8405337526662345,0.0,0.9319931018973251,0.8284632440157015,0.0,0.9008364435658753]},{"children_left":[1,2,3,4,5,-1,7,-1,9,10,-1,-1,13,-1,-1,16,-1,-1,19,-1,21,-1,23,24,25,-1,-1,28,-1,-1,31,32,-1,-1,35,-1,-1,-1,39,40,41,-1,43,44,45,-1,47,-1,-1,-1,51,52,-1,54,-1,-1,-1,58,59,60,61,-1,63,-1,-1,66,67,-1,-1,-1,71,72,73,-1,-1,76,-1,-1,79,80,-1,-1,83,-1,-1,86,-1,88,89,90,-1,-1,-1,94,95,-1,-1,-1,99,-1,-1],"children_right":[38,37,18,15,6,-1,8,-1,12,11,-1,-1,14,-1,-1,17,-1,-1,20,-1,22,-1,30,27,26,-1,-1,29,-1,-1,34,33,-1,-1,36,-1,-1,-1,98,57,42,-1,50,49,46,-1,48,-1,-1,-1,56,53,-1,55,-1,-1,-1,85,70,65,62,-1,64,-1,-1,69,68,-1,-1,-1,78,75,74,-1,-1,77,-1,-1,82,81,-1,-1,84,-1,-1,87,-1,93,92,91,-1,-1,-1,97,96,-1,-1,-1,100,-1,-1],"feature":[9,3,1,2,3,-2,2,-2,7,12,-2,-2,0,-2,-2,6,-2,-2,3,-2,2,-2,1,4,0,-2,-2,3,-2,-2,2,1,-2,-2,7,-2,-2,-2,2,6,2,-2,1,3,3,-2,1,-2,-2,-2,3,2,-2,1,-2,-2,-2,0,0,1,0,-2,3,-2,-2,0,1,-2,-2,-2,0,0,1,-2,-2,1,-2,-2,1,3,-2,-2,2,-2,-2,2,-2,2,1,3,-2,-2,-2,5,3,-2,-2,-2,2,-2,-2],"threshold":[0.5,210.0,27.945000648498535,6.700000047683716,113.0,-2.0,5.349999904632568,-2.0,0.5,0.5,-2.0,-2.0,45.5,-2.0,-2.0,0.5,-2.0,-2.0,113.0,-2.0,5.349999904632568,-2.0,32.73500061035156,0.5,53.5,-2.0,-2.0,128.0,-2.0,-2.0,6.700000047683716,38.15999984741211,-2.0,-2.0,0.5,-2.0,-2.0,-2.0,6.700000047683716,0.5,5.349999904632568,-2.0,27.484999656677246,210.0,113.0,-2.0,24.579999923706055,-2.0,-2.0,-2.0,210.0,5.900000095367432,-2.0,34.880001068115234,-2.0,-2.0,-2.0,43.5,26.5,20.335000038146973,6.5,-2.0,180.0,-2.0,-2.0,12.5,27.30500030517578,-2.0,-2.0,-2.0,28.5,27.5,27.039999961853027,-2.0,-2.0,28.795000076293945,-2.0,-2.0,33.52499961853027,113.0,-2.0,-2.0,5.349999904632568,-2.0,-2.0,5.349999904632568,-2.0,5.75,30.460000038146973,159.5,-2.0,-2.0,-2.0,0.5,210.0,-2.0,-2.0,-2.0,6.900000095367432,-2.0,-2.0],"value":[0.500000000000098,0.5705304931709181,0.4524576164113507,0.3232567865552818,0.20240633748763143,0.0,0.2679095289610302,0.0,0.38329077012076346,0.33933383161206937,0.3218826588447482,0.45622512631349676,0.44470293243152326,0.15121251583483084,0.6112969595140247,1.0,1.0,1.0,0.5902634568192634,0.0,0.676742929265029,0.0,0.7804992366756659,0.7113785515199389,0.6698095978104636,0.44001823291040076,0.8020857241386463,0.855527180324394,0.7728082090550157,0.8637247521539047,0.8278025736465804,0.7258877567246556,0.685141724338299,0.7761877897478595,1.0,1.0,1.0,1.0,0.3111516482241046,0.19020676890812407,0.20016562151894363,0.0,0.2978613293342871,0.19914813762678266,0.12422607021074972,0.0,0.1700948844202826,0.03217605493892997,0.2588610509806743,1.0,0.5826626217987315,0.4517880885485311,0.5218156315390091,0.41947172880228,0.3232085179530857,0.5973987191871659,1.0,0.18191038669517876,0.05389327151583784,0.01733169651162857,0.03216644646451177,0.0,0.0790452887478914,0.01846760550304569,0.43927056267964415,0.0030883989871954834,0.008100361088168676,0.0,0.012601764012843512,0.0,0.12835344503213342,0.1927062561615903,0.11188789812032476,0.0,0.16759541198287514,0.25381862899199265,0.0,0.7375321561225929,0.11846344956991509,0.03252301874299914,0.0,0.04679244538714119,0.4554286618694149,0.0,0.587598056087825,0.33948330540292254,0.0,0.46759989662322055,0.5703851109335183,0.33249230699353877,0.2191733245908311,0.6884313181516818,0.8259248914134607,0.4470716376004937,0.4300102643461789,0.31879224765085906,1.0,0.6913242912649303,1.0,1.0,1.0]},{"children_left":[1,2,3,4,5,6,7,8,-1,-1,11,-1,-1,-1,-1,16,-1,18,-1,20,21,-1,-1,24,-1,-1,27,28,29,30,-1,-1,33,-1,-1,36,37,38,-1,-1,41,-1,-1,44,45,-1,-1,48,-1,-1,51,-1,53,-1,55,56,-1,-1,59,-1,-1,62,-1,-1,65,66,67,-1,69,70,-1,72,73,-1,-1,-1,77,-1,79,-1,81,-1,-1,84,85,-1,87,-1,89,90,-1,-1,93,-1,-1,96,-1,98,99,100,-1,-1,-1,-1,105,106,107,108,109,-1,-1,-1,113,-1,115,-1,-1,118,-1,-1,121,-1,123,-1,125,126,-1,-1,129,130,-1,-1,133,-1,-1],"children_right":[64,61,26,15,14,13,10,9,-1,-1,12,-1,-1,-1,-1,17,-1,19,-1,23,22,-1,-1,25,-1,-1,50,35,32,31,-1,-1,34,-1,-1,43,40,39,-1,-1,42,-1,-1,47,46,-1,-1,49,-1,-1,52,-1,54,-1,58,57,-1,-1,60,-1,-1,63,-1,-1,104,83,68,-1,76,71,-1,75,74,-1,-1,-1,78,-1,80,-1,82,-1,-1,95,86,-1,88,-1,92,91,-1,-1,94,-1,-1,97,-1,103,102,101,-1,-1,-1,-1,120,117,112,111,110,-1,-1,-1,114,-1,116,-1,-1,119,-1,-1,122,-1,124,-1,128,127,-1,-1,132,131,-1,-1,134,-1,-1],"feature":[4,3,12,0,5,2,7,2,-2,-2,3,-2,-2,-2,-2,3,-2,2,-2,5,0,-2,-2,2,-2,-2,1,0,0,2,-2,-2,7,-2,-2,6,1,1,-2,-2,0,-2,-2,1,3,-2,-2,2,-2,-2,2,-2,0,-2,0,2,-2,-2,6,-2,-2,9,-2,-2,9,13,2,-2,10,0,-2,2,5,-2,-2,-2,0,-2,3,-2,1,-2,-2,5,2,-2,3,-2,0,1,-2,-2,3,-2,-2,2,-2,1,2,3,-2,-2,-2,-2,0,3,7,1,0,-2,-2,-2,3,-2,0,-2,-2,0,-2,-2,2,-2,3,-2,0,6,-2,-2,2,7,-2,-2,3,-2,-2],"threshold":[0.5,210.0,0.5,43.5,0.5,6.700000047683716,0.5,5.349999904632568,-2.0,-2.0,113.0,-2.0,-2.0,-2.0,-2.0,113.0,-2.0,5.349999904632568,-2.0,0.5,54.5,-2.0,-2.0,6.700000047683716,-2.0,-2.0,24.36500072479248,49.5,35.5,4.25,-2.0,-2.0,0.5,-2.0,-2.0,0.5,23.1899995803833,21.765000343322754,-2.0,-2.0,69.5,-2.0,-2.0,20.144999504089355,128.0,-2.0,-2.0,5.349999904632568,-2.0,-2.0,5.349999904632568,-2.0,47.5,-2.0,63.5,6.700000047683716,-2.0,-2.0,0.5,-2.0,-2.0,0.5,-2.0,-2.0,0.5,0.5,5.349999904632568,-2.0,0.5,34.5,-2.0,6.700000047683716,0.5,-2.0,-2.0,-2.0,41.5,-2.0,113.0,-2.0,32.09499931335449,-2.0,-2.0,0.5,5.349999904632568,-2.0,113.0,-2.0,49.5,31.77500057220459,-2.0,-2.0,159.5,-2.0,-2.0,5.349999904632568,-2.0,33.42999839782715,6.549999952316284,158.5,-2.0,-2.0,-2.0,-2.0,57.5,159.5,0.5,32.40999984741211,49.5,-2.0,-2.0,-2.0,113.0,-2.0,46.5,-2.0,-2.0,51.5,-2.0,-2.0,5.349999904632568,-2.0,113.0,-2.0,62.5,0.5,-2.0,-2.0,6.1499998569488525,0.5,-2.0,-2.0,210.0,-2.0,-2.0],"value":[0.4999999999998756,0.4465751033104323,0.3348015409607602,0.3115036778338166,0.11329693611332456,0.11185148208872987,0.06610720467518826,0.058619626551748696,0.0,0.0964253396830624,0.07643520803834596,0.0,0.10584001466966196,1.0,0.6219630721218424,0.48521103362306617,0.0,0.5746194693475465,0.0,0.697948425833826,0.6703496168553904,0.5462747326445238,0.7230526071988863,0.8878124990394624,0.7862414233804634,1.0,0.5196333341953994,0.21720565454470508,0.02248615630653046,0.0,0.0,0.0,0.045848485303840836,0.0,0.1807609897705281,0.3197601809559574,0.4529288166303736,0.37525174104877984,0.48927224203364467,0.14261147638040636,0.5550597682039724,0.6431036754050851,0.37525174104878006,0.21319784539946293,0.4637863822483445,0.0,0.5904236662917408,0.11775858741798524,0.0,0.17778851453225109,0.5609758534712178,0.0,0.6885511171454382,0.3105747331187257,0.7513598840587098,0.6469762700023849,0.47020423459747124,1.0,0.8134670621722456,0.8364386135806634,0.7736944611082479,1.0,1.0,1.0,0.8019927983033553,0.812871502745023,0.8215823448957189,0.0,0.8819262127165224,0.8901714979473292,0.5904236662917408,0.8934170960066418,0.82709425634462,0.8153537369082778,0.8744533785239764,1.0,0.8556778767436841,0.6742997051282315,0.868740754997883,0.0,0.9077004131696916,0.8844589411922918,0.9453509144220977,0.8040578872136197,0.7942931770208489,0.0,0.871202521899517,0.0,0.9061069589423612,0.8315673522732598,0.7178255552641961,0.8787686235728174,0.9182382592022277,0.8565164617421288,0.9721061320094425,0.8743860036005201,0.0,0.9211450007487365,0.9015731749481231,0.7923527915989634,0.6794792208912928,0.8990273774268428,0.9900997299095814,0.9596538799707396,0.7283966459612385,0.6471132647415933,0.37996166945071513,0.4863898152632669,0.4259382517543531,0.5569660497677122,0.26820080540452446,0.6069977950562842,0.16428113123735244,0.0,0.2682008054045245,0.0,0.44470963334092467,0.9108015742189816,0.9419192460564172,0.8438915330805665,0.760459543968037,0.0,0.8522650443063088,0.0,0.8931290346187196,0.9287623635420402,0.8990273774268428,0.9449683836216167,0.8795645532783859,0.6499259157162054,0.5230894985947918,0.7827913539862743,0.9464462127295544,0.899400078321442,1.0]},{"children_left":[1,2,3,-1,5,6,7,8,9,-1,-1,12,-1,-1,15,-1,17,-1,-1,20,-1,22,23,-1,-1,26,-1,-1,29,30,31,-1,33,-1,-1,36,-1,-1,39,40,-1,-1,43,-1,45,-1,-1,48,-1,-1,51,-1,53,54,-1,56,57,58,59,-1,-1,62,-1,-1,65,-1,-1,68,69,70,-1,-1,73,-1,-1,76,77,-1,-1,80,-1,-1,83,-1,85,86,87,88,-1,-1,91,-1,-1,-1,-1],"children_right":[50,47,4,-1,28,19,14,11,10,-1,-1,13,-1,-1,16,-1,18,-1,-1,21,-1,25,24,-1,-1,27,-1,-1,38,35,32,-1,34,-1,-1,37,-1,-1,42,41,-1,-1,44,-1,46,-1,-1,49,-1,-1,52,-1,82,55,-1,67,64,61,60,-1,-1,63,-1,-1,66,-1,-1,75,72,71,-1,-1,74,-1,-1,79,78,-1,-1,81,-1,-1,84,-1,94,93,90,89,-1,-1,92,-1,-1,-1,-1],"feature":[0,3,3,-2,10,11,4,2,12,-2,-2,2,-2,-2,2,-2,6,-2,-2,6,-2,1,0,-2,-2,3,-2,-2,6,2,2,-2,0,-2,-2,1,-2,-2,2,1,-2,-2,3,-2,0,-2,-2,3,-2,-2,3,-2,5,2,-2,7,3,4,3,-2,-2,3,-2,-2,10,-2,-2,4,0,1,-2,-2,9,-2,-2,2,2,-2,-2,12,-2,-2,2,-2,2,3,9,1,-2,-2,7,-2,-2,-2,-2],"threshold":[42.5,210.0,113.0,-2.0,0.5,0.5,0.5,6.700000047683716,0.5,-2.0,-2.0,7.25,-2.0,-2.0,5.349999904632568,-2.0,0.5,-2.0,-2.0,0.5,-2.0,35.989999771118164,35.5,-2.0,-2.0,150.0,-2.0,-2.0,0.5,6.549999952316284,5.349999904632568,-2.0,37.5,-2.0,-2.0,27.09999942779541,-2.0,-2.0,6.349999904632568,44.755001068115234,-2.0,-2.0,128.0,-2.0,25.5,-2.0,-2.0,230.0,-2.0,-2.0,113.0,-2.0,0.5,5.349999904632568,-2.0,0.5,210.0,0.5,150.0,-2.0,-2.0,135.0,-2.0,-2.0,0.5,-2.0,-2.0,0.5,54.5,36.829999923706055,-2.0,-2.0,0.5,-2.0,-2.0,6.700000047683716,5.900000095367432,-2.0,-2.0,0.5,-2.0,-2.0,5.349999904632568,-2.0,6.700000047683716,210.0,0.5,21.269999504089355,-2.0,-2.0,0.5,-2.0,-2.0,-2.0,-2.0],"value":[0.5000000000001735,0.16287453141473907,0.11143503975623835,0.0,0.15290390508705964,0.14422679620779877,0.1392128596557184,0.12726768138895322,0.07031281978767441,0.06943493564511435,0.09037167100827774,1.0,1.0,1.0,0.6185475415551202,0.0,0.7366284023485306,0.754671884858087,0.7202685179624063,0.2692573834692736,0.3599602416989785,0.20860595361455667,0.1063401115935928,0.14423380253254006,0.0,0.5228927288647451,0.687498825254215,0.19540143918713176,0.2331447293012527,0.24064404536212952,0.1614497237959246,0.0,0.2577127584619576,0.19086417214876522,0.4584021969517765,0.6515667028875787,0.4004269527615086,0.7276253754799181,0.22686048765360312,0.07235405358357995,0.03841195846169437,0.6217776002311883,0.58187342658177,0.7331725308353267,0.5300598046072659,0.2912761298029067,0.6263332398665209,1.0,1.0,1.0,0.6571398337275643,0.0,0.7349729957490776,0.7094258866264619,0.0,0.8062981598847903,0.7891591227375009,0.6920599584834956,0.6511845061355241,0.6856493405807289,0.6163634259050959,0.841570217355071,0.8873474882171143,0.8233659874956877,1.0,1.0,1.0,0.8272878585780636,0.8012931249337163,0.692165172059101,0.6317590183585086,0.9067923356599248,0.8433331041450368,0.8653750460595327,0.7625759617477947,0.917387469157478,0.8539631567636101,0.8729247046656855,0.8440132967504176,1.0,1.0,1.0,0.8911673843181133,0.0,0.930719758580179,0.8842831678893535,0.8245817492672367,0.8412650537856425,0.42852916797249135,0.85206322155283,0.7460181543957051,0.7463491381624873,0.7458570122175984,1.0,1.0]},{"children_left":[1,2,3,4,5,-1,7,8,9,-1,-1,12,-1,-1,15,16,-1,-1,19,-1,-1,22,-1,24,-1,26,27,-1,-1,30,-1,-1,33,-1,-1,36,37,38,-1,40,41,-1,-1,-1,45,-1,47,48,-1,50,-1,-1,53,-1,-1,56,-1,58,59,60,-1,62,-1,-1,65,66,-1,-1,69,-1,-1,72,73,-1,-1,76,-1,-1,79,-1,-1],"children_right":[78,35,32,21,6,-1,14,11,10,-1,-1,13,-1,-1,18,17,-1,-1,20,-1,-1,23,-1,25,-1,29,28,-1,-1,31,-1,-1,34,-1,-1,55,44,39,-1,43,42,-1,-1,-1,46,-1,52,49,-1,51,-1,-1,54,-1,-1,57,-1,71,64,61,-1,63,-1,-1,68,67,-1,-1,70,-1,-1,75,74,-1,-1,77,-1,-1,80,-1,-1],"feature":[2,5,3,12,2,-2,9,6,2,-2,-2,10,-2,-2,0,4,-2,-2,4,-2,-2,2,-2,3,-2,6,0,-2,-2,3,-2,-2,11,-2,-2,7,1,2,-2,1,0,-2,-2,-2,2,-2,9,4,-2,1,-2,-2,3,-2,-2,2,-2,9,2,3,-2,4,-2,-2,12,14,-2,-2,2,-2,-2,0,0,-2,-2,0,-2,-2,13,-2,-2],"threshold":[6.700000047683716,0.5,210.0,0.5,5.349999904632568,-2.0,0.5,0.5,5.75,-2.0,-2.0,0.5,-2.0,-2.0,53.5,0.5,-2.0,-2.0,0.5,-2.0,-2.0,5.349999904632568,-2.0,113.0,-2.0,0.5,44.5,-2.0,-2.0,158.5,-2.0,-2.0,0.5,-2.0,-2.0,0.5,24.140000343322754,5.349999904632568,-2.0,22.429999351501465,75.0,-2.0,-2.0,-2.0,5.349999904632568,-2.0,0.5,0.5,-2.0,37.94499969482422,-2.0,-2.0,113.0,-2.0,-2.0,5.349999904632568,-2.0,0.5,5.900000095367432,113.0,-2.0,0.5,-2.0,-2.0,0.5,0.5,-2.0,-2.0,6.349999904632568,-2.0,-2.0,75.5,55.5,-2.0,-2.0,79.5,-2.0,-2.0,0.5,-2.0,-2.0],"value":[0.4999999999999777,0.35223092161114605,0.3208270938335683,0.22390436733284558,0.20572660393969924,0.0,0.3055318235809056,0.3716536947773548,0.39760679565999446,0.3349039852305769,0.40760429101879525,0.3553722705847113,0.36849115791950005,0.2693331292207722,0.18172625940230874,0.08120110121850936,0.07286702961080907,0.535174008572824,0.4045718259285533,0.3763161740863409,0.6135723052631965,0.3821441525435612,0.0,0.5169215966142106,0.0,0.607163352053935,0.6714989715827037,0.3147908002510615,0.7189119934989634,0.5331355750760595,0.48563423633380737,0.603397633702414,1.0,1.0,1.0,0.7411821415195791,0.7708767908182306,0.549611087009247,0.0,0.670768450837165,0.7497052763226686,0.9141625,0.0,0.45512634014210823,0.7999126053512109,0.0,0.86689264702346,0.883197261913854,0.8760552083059321,0.8999018250024041,0.8669702435303663,0.9623491250982805,0.7693100948911349,0.0,0.8333953965397771,0.7182550726127582,0.0,0.8278293737986264,0.8418962321710206,0.8616982287847447,0.0,0.8980285298744675,0.8807014399034707,0.9433122639236362,0.8321075904089112,0.8202813046794383,0.8216877108065532,0.8119429431696561,0.8525945183440782,0.8037723987549895,0.9024258367033299,0.7785159690825035,0.8285538949574675,0.4701968020471013,0.8674430384692668,0.6223852857863895,0.477219931092086,0.6848858367523152,1.0,1.0,1.0]},{"children_left":[1,2,3,4,5,6,7,8,-1,-1,11,-1,-1,14,15,-1,-1,-1,19,20,-1,22,-1,-1,25,-1,27,-1,-1,30,31,32,33,-1,-1,36,-1,-1,39,40,-1,-1,43,-1,-1,-1,47,48,49,50,51,-1,-1,54,-1,-1,57,58,-1,-1,-1,62,-1,64,-1,-1,-1,68,-1,70,71,72,73,74,-1,-1,77,-1,-1,80,-1,82,-1,-1,85,86,87,-1,-1,90,-1,-1,93,-1,95,-1,-1,-1,-1],"children_right":[98,67,46,29,18,13,10,9,-1,-1,12,-1,-1,17,16,-1,-1,-1,24,21,-1,23,-1,-1,26,-1,28,-1,-1,45,38,35,34,-1,-1,37,-1,-1,42,41,-1,-1,44,-1,-1,-1,66,61,56,53,52,-1,-1,55,-1,-1,60,59,-1,-1,-1,63,-1,65,-1,-1,-1,69,-1,97,84,79,76,75,-1,-1,78,-1,-1,81,-1,83,-1,-1,92,89,88,-1,-1,91,-1,-1,94,-1,96,-1,-1,-1,-1],"feature":[3,0,10,1,4,0,0,0,-2,-2,1,-2,-2,2,3,-2,-2,-2,6,2,-2,3,-2,-2,2,-2,3,-2,-2,2,12,0,13,-2,-2,3,-2,-2,7,0,-2,-2,1,-2,-2,-2,2,4,6,1,3,-2,-2,2,-2,-2,1,1,-2,-2,-2,2,-2,1,-2,-2,-2,2,-2,2,9,4,2,3,-2,-2,5,-2,-2,3,-2,1,-2,-2,4,1,6,-2,-2,5,-2,-2,3,-2,5,-2,-2,-2,-2],"threshold":[210.0,46.5,0.5,33.92999839782715,0.5,25.5,11.5,9.5,-2.0,-2.0,22.175000190734863,-2.0,-2.0,6.700000047683716,113.0,-2.0,-2.0,-2.0,0.5,5.349999904632568,-2.0,113.0,-2.0,-2.0,5.900000095367432,-2.0,142.5,-2.0,-2.0,6.700000047683716,0.5,38.5,0.5,-2.0,-2.0,113.0,-2.0,-2.0,0.5,29.5,-2.0,-2.0,38.53499984741211,-2.0,-2.0,-2.0,6.700000047683716,0.5,0.5,40.43499946594238,113.0,-2.0,-2.0,5.75,-2.0,-2.0,46.755001068115234,31.1850004196167,-2.0,-2.0,-2.0,5.349999904632568,-2.0,32.3700008392334,-2.0,-2.0,-2.0,5.349999904632568,-2.0,6.700000047683716,0.5,0.5,6.1499998569488525,113.0,-2.0,-2.0,0.5,-2.0,-2.0,113.0,-2.0,38.27499961853027,-2.0,-2.0,0.5,28.789999961853027,0.5,-2.0,-2.0,0.5,-2.0,-2.0,113.0,-2.0,0.5,-2.0,-2.0,-2.0,-2.0],"value":[0.5000000000000434,0.3825927622538258,0.14211632563792162,0.1297550326194184,0.08192871874566827,0.07509716130039212,0.028089131918228642,0.0059663955623258024,0.002793667567363482,0.024565575936302736,0.046386634098037845,0.01238711819852216,0.062291144174883815,0.1269737508264213,0.06749390966421202,0.0,0.09509894714226055,1.0,0.48557193121992337,0.549717830658376,0.0,0.6498670681234684,0.0,0.750242484681649,0.37171319466157926,0.0,0.5877531045451766,0.6258173912672074,0.554053721906793,0.4251950577513677,0.2594753658695812,0.24979086352777333,0.14278674085532572,0.17974177499872254,0.11596414357212995,0.4068610308459468,0.0,0.5182372952857406,0.3361347327465493,0.26517575209699423,0.0,0.33325562327071406,0.44104054555731337,0.32414698356279553,0.5380574086541403,1.0,0.24756487560582197,0.1321500326395687,0.10992785988883642,0.12747608748695613,0.076762502354265,0.0,0.10474439948829566,0.6151930282434069,0.0,0.7837245127195703,0.09662637245501361,0.0735491056372387,0.036313438291914205,0.19115471422421038,0.5917522525615189,0.5106758206617807,0.0,0.6258173912672076,0.3209569872687924,0.7725850981483943,1.0,0.561624988708172,0.0,0.685861644909587,0.5352994003736353,0.5736945347402237,0.5278300733324243,0.5396835283357745,0.0,0.6252785419903091,0.5109461107010209,0.47834299052863083,0.7567992703941888,0.7319045062760228,0.0,0.7935795831522626,0.7619420085745745,0.9292034513890768,0.39543797455494656,0.37849488799904274,0.317162513470076,0.3341091304889832,0.3034798088951145,0.5331421354061184,0.48043954185048227,0.8285217489645034,0.5533486825197709,0.0,0.642460292926675,0.6344105274176756,0.6922331916528739,1.0,1.0]},